 
-0.28315,-0.11361,-0.56262,0.68113,-0.27278,-0.71187,-1.1565,0.71165,-0.90282,-0.52896,1.0192,-0.13107,1.0399,-0.54739,0.090653,-0.14211,1.03,-0.40446,-0.27339,-0.39979,0.25674,0.12961,-0.78036,0.80146,-1.1232,0.98804,0.37855,-0.21444,-0.15058,0.71826,0.21139,-0.43511,-0.56583,-0.58365,-0.096866,-0.84575,0.059893,-0.49441,-0.5304,-0.87171,-0.33716,0.37202,0.3102,0.89463,0.015994,-0.67272,-0.55472,-0.25055,0.26698,0.7535,0.40063,0.54008,-0.90112,0.6071,-0.52805,0.43642,1.0911,-0.49568,0.24432,0.01996,-0.39886,0.3639,-0.42432,0.42688,-0.55075,-0.52852,0.47483,-0.016821,-0.097666,-0.047444,0.69511,-0.063739,-0.033397,0.41045,-0.33535,0.16746,0.037918,-0.84261,0.79718,-0.95031,-0.34626,-0.094494,-0.52687,-0.19081,-0.12117,0.5867,0.64009,0.78793,1.1671,-0.42445,0.47865,-0.1565,0.60417,-0.41592,-0.92881,-0.25999,-0.038968,1.0409,-0.72234,0.47573
-0.2406,0.60305,-0.30673,0.37829,0.38799,0.27375,0.00088129,0.57286,0.0063809,0.43226,0.46151,-0.52111,-0.11497,-0.2931,-0.50167,0.2602,-0.28634,-0.89375,0.34149,0.41867,-0.30161,-0.54189,0.33736,0.032006,0.083214,0.77475,0.59866,-0.23705,0.44813,0.59068,0.35598,-0.52874,0.051728,-0.35743,0.68733,-0.101,0.60982,0.41633,0.19998,0.13698,0.63828,0.23145,0.58304,0.18382,0.29425,0.5218,-0.39705,-0.58814,0.63415,-0.45637,0.097614,-0.54106,-0.24447,-0.20362,0.25742,0.78353,-0.29427,-0.85082,0.51917,0.090127,-0.62708,-0.44882,0.27709,0.63842,0.44028,0.23534,0.48511,-0.082291,0.69417,-0.65469,0.95578,-0.6086,-0.26896,-0.077708,0.18431,0.39846,0.76647,0.076917,0.4672,0.031965,0.30151,-0.17998,-0.4764,-0.68794,0.96763,-0.12249,0.5035,0.87895,-0.19238,0.559,0.34597,-0.58678,-0.6755,-0.64237,0.26168,-0.63985,-0.70991,-0.083368,-0.89287,0.9435
-0.12789,0.45807,-0.030524,0.40952,0.14686,0.22708,-0.13528,0.2579,0.064255,0.38725,0.025187,-0.43654,-0.22525,-0.37613,-0.20531,0.23052,0.12694,-0.51683,0.20463,0.30465,0.051377,-0.19206,-0.078695,0.013311,0.054885,0.27582,0.45749,-0.54898,0.22095,0.28959,-0.010094,-0.51872,0.21039,-0.52428,0.41189,0.18853,0.16138,-0.197,0.28895,-0.15369,0.3932,0.19132,0.18975,-0.098163,-0.15978,0.38076,-0.28025,0.019705,0.12733,-0.15626,-0.055603,0.12034,-0.13445,0.051369,0.14295,0.44764,0.10162,-0.57316,0.43074,-0.26329,-0.58239,-0.38893,-0.0093705,0.38214,-0.077073,0.1664,0.48236,0.4222,0.22988,-0.46887,0.34211,-0.516,-0.34645,0.04128,0.21683,0.32782,0.16397,-0.28661,0.077486,-0.099542,0.31874,0.17474,-0.18086,-0.18986,0.27481,-0.22582,0.36778,0.57464,-0.20576,0.18216,0.48393,-0.28276,-0.062761,-0.25243,-0.15312,0.12538,-0.090285,-0.26196,-0.22996,0.60122
-0.19635,0.33213,-0.13453,0.32807,-0.22772,0.14562,0.16183,0.37979,-0.21162,-0.13845,0.34501,0.060207,-0.28564,-0.17447,0.066726,0.35363,-0.15403,-0.11907,0.058522,0.28136,0.015897,-0.27636,0.030512,-0.20922,-0.014838,0.25426,0.1105,-0.39342,0.13828,0.011436,0.32286,-0.31383,-0.2344,0.034031,0.068058,-0.015585,0.25863,-0.14252,0.37187,-0.32735,-0.077414,-0.2745,0.29497,-0.11941,-0.12692,-0.0080975,-0.20592,0.24265,0.15189,0.21029,-0.031207,0.09774,-0.13151,0.017162,-0.20608,0.034746,-0.10419,-0.16449,0.3364,-0.13465,-0.18084,0.093648,0.36769,0.10519,-0.043311,0.10564,0.082443,0.28201,0.21493,-0.045024,-0.03366,-0.29047,0.21569,-0.11011,-0.1874,-0.29191,0.032985,-0.29765,-0.15523,0.38354,0.032832,-0.17861,-0.17991,-0.04167,-0.013872,-0.089575,0.41145,0.19248,-0.020113,0.26942,0.30379,-0.1673,0.06344,0.082151,0.10058,-0.22471,-0.029693,-0.036196,-0.081902,-0.0044409
0.0099629,0.15278,0.14569,0.41767,0.32641,0.081377,0.20846,-0.064863,-0.2332,0.31382,0.13797,-0.12327,-0.10483,-0.35085,0.054419,-0.11698,0.057368,0.18909,0.045529,-0.014593,0.18132,-0.0021398,-0.24709,-0.36367,0.22903,0.28686,-0.3018,-0.2119,0.058152,0.034308,0.35061,-0.084878,0.29407,-0.16812,0.13601,0.082694,-0.0042253,-0.052811,0.10157,0.0046648,0.0061346,0.19032,-0.12402,-0.071995,0.33117,-0.20338,-0.059592,0.32652,0.21638,0.17494,-0.25849,-0.20016,-0.15922,0.26043,0.33343,0.2605,-0.28464,0.22555,-0.043343,-0.34833,-0.043419,-0.2816,-0.041709,0.28052,0.0050996,-0.27246,-0.083183,0.097845,0.0068321,-0.073713,0.22599,-0.43595,0.30429,-0.18394,0.31233,-0.2532,-0.33925,-0.36104,0.051554,0.27118,0.22756,-0.29824,-0.24318,0.11935,-0.071991,0.040622,0.12803,0.094305,0.20374,-0.2772,0.1363,0.32831,0.17728,-0.01079,0.18688,0.040755,-0.097154,-0.24463,0.02392,-0.18325
0.17697,0.20898,0.006744,0.23513,-0.22419,0.097267,-0.22174,0.25394,0.27663,0.022606,0.12977,-0.24461,0.14324,-0.21013,0.28603,0.22983,0.012963,0.32788,-0.068077,0.15116,-0.11167,-0.069784,-0.05545,-0.40812,-0.1508,-0.096634,-0.13174,-0.11607,0.071777,-0.011092,0.037954,0.28211,0.3751,-0.28697,0.066867,-0.057259,-0.0086995,0.017898,0.32978,-0.060044,-0.049564,-0.37636,-0.23259,0.078951,0.24763,-0.023998,-0.13026,0.17842,-0.31369,0.15666,-0.21502,0.2511,0.37153,-0.26722,0.020567,-0.062519,-0.34306,-0.06518,-0.162,-0.032861,0.19509,-0.38907,0.29467,-0.035564,-0.13075,-0.14922,0.1393,-0.034275,-0.37181,-0.017413,0.12697,-0.10453,0.29064,0.2317,0.17886,0.13298,-0.26748,-0.060531,0.21931,0.18414,0.040459,-0.22985,0.080565,0.28334,-0.34951,-0.20018,-0.19895,-0.32426,-0.30575,-0.041364,0.17897,0.41262,-0.096926,0.35008,-0.18445,0.30594,-0.087815,-0.20481,0.17796,-0.12354
0.054366,-0.31053,0.27562,0.26797,0.32391,-0.10582,0.26367,0.012827,0.2383,-0.14644,0.096455,0.21399,0.051456,-0.059345,-0.13963,-0.21155,-0.32024,0.11331,0.17576,-0.0018449,-0.11465,0.049795,-0.16069,-0.03236,0.21646,0.14889,-0.12699,-0.15591,0.039447,0.043216,-0.048902,0.19104,0.18154,-0.16674,-0.28956,0.14529,-0.35314,-0.26728,-0.15417,-0.26848,-0.35374,-0.2786,0.059777,-0.26589,-0.12746,0.12923,0.26593,0.075078,-0.28018,0.078871,-0.25083,-0.21921,0.40262,0.033566,0.050594,-0.11588,0.20594,0.22062,0.13678,-0.21025,0.1775,-0.0015362,-0.1368,0.032392,-0.27246,0.1289,-0.19596,0.28651,-0.40154,-0.12823,-0.42994,-0.27129,0.20813,0.014823,-0.1602,-0.3725,0.061466,-0.0088095,0.097946,0.048093,-0.045144,0.21708,0.21012,-0.19582,-0.093393,-0.075275,-0.19766,-0.40478,-0.32992,-0.29068,0.20774,0.34331,0.092717,0.30193,-0.30783,-0.036468,-0.19004,-0.37274,0.33261,-0.2642
0.054641,-0.016207,-0.065597,-0.075171,-0.0084272,-0.34404,0.34311,0.12437,0.17367,0.2396,-0.25204,0.21146,-0.17504,-0.067568,0.38947,0.082603,-0.14185,0.3229,0.24094,-0.37567,0.3049,0.055147,0.016641,-0.12504,0.066531,0.040587,-0.2636,-0.070093,-0.18006,-0.38544,-0.15624,0.024447,0.024679,0.19094,-0.43288,0.088812,-0.017938,-0.26874,0.19637,-0.12719,-0.16097,-0.12492,-0.28896,-0.065133,0.34012,-0.072765,0.18763,-0.16732,-0.14657,-0.15111,0.045201,0.16896,0.36834,-0.26821,0.35949,-0.3107,-0.24037,0.29056,0.112,-0.36316,-0.24731,-0.14217,0.19464,0.17854,-0.34586,0.14326,0.17053,-0.19527,-0.19777,0.44215,-0.45339,0.12159,-0.066903,-0.15185,0.2324,0.0085204,-0.37531,-0.30784,0.14326,0.36248,-0.062022,0.33761,-0.30915,0.23015,-0.34205,0.28176,0.33091,-0.42122,-0.23996,-0.13684,0.27115,-0.020036,0.33429,0.0082212,0.14805,0.089293,0.23061,0.074535,-0.13568,-0.4236
-0.046176,0.20157,0.29437,0.1862,0.2556,-0.33598,0.37681,0.33132,-0.26052,-0.17182,0.12051,0.12765,-0.13164,-0.30597,-0.090733,-0.2189,-0.24425,0.18817,0.18547,0.08798,-0.16455,0.38198,-0.14725,-0.38375,0.035077,-0.13918,-0.28784,-0.11794,-0.34435,-0.37406,0.2327,0.34839,0.23929,0.027128,-0.45431,0.25532,-0.26554,-0.32845,0.2318,-0.062212,-0.19651,-0.34593,-0.20224,0.14905,-0.18624,-0.44251,0.053498,0.42088,0.020507,-0.04925,-0.054014,0.15729,0.30431,-0.23452,0.074971,-0.07224,-0.14614,0.42315,-0.45013,0.03655,-0.26318,0.063362,0.066108,0.028205,-0.31673,0.24055,-0.21048,0.089916,-0.059547,0.12885,-0.11277,0.11134,-0.034472,-0.32738,0.22807,0.1193,-0.18869,-0.23372,0.0097497,0.1326,0.23485,0.058271,0.10786,0.42529,-0.24627,0.31382,0.0076864,-0.29188,-0.18432,-0.14461,0.25618,0.3273,0.34389,-0.061387,-0.31584,0.43852,0.37083,0.066355,0.38396,-0.36392
0.34091,-0.25825,0.30978,0.27352,0.28015,0.19164,0.37048,-0.19182,-0.30283,0.029937,0.29043,0.31599,-0.24638,-0.21695,0.26144,-0.25138,-0.34006,0.076982,0.38374,-0.49477,-0.11872,0.41078,-0.0011765,-0.075615,0.20013,-0.030596,-0.11328,-0.25283,-0.46412,-0.061496,0.22758,0.016168,0.3522,0.10848,-0.43366,-0.11594,-0.0085135,-0.084061,0.014537,-0.090033,-0.33872,-0.28135,-0.33241,-0.45263,0.0013792,0.10798,0.43169,0.16149,-0.20947,0.070036,-0.3292,0.17521,0.086242,-0.34785,0.37779,-0.47804,-0.29073,0.34046,-0.30637,0.034504,-0.088736,-0.30763,0.047575,0.17652,-0.11174,0.034764,-0.39814,0.099708,-0.076053,0.35306,-0.40201,0.059215,0.054938,-0.21885,0.27203,-0.17734,-0.05549,-0.089401,0.1516,0.25638,0.14148,0.029431,-0.2439,0.4322,-0.28022,-0.166,0.27247,0.048158,-0.46523,-0.24134,-0.13695,0.0028829,0.13562,0.35754,0.10694,0.40568,0.28896,-0.38989,0.35773,-0.35365
0.3931,-0.3599,-0.023862,-0.17342,0.038248,-0.25939,0.34171,-0.063305,0.18118,0.18067,0.26232,0.37586,-0.13529,0.089311,0.41594,-0.33253,-0.092744,0.39208,0.26338,-0.41716,0.090053,0.37002,0.14067,-0.19532,0.39533,0.072413,-0.15224,0.19921,-0.25176,-0.27708,0.15414,0.4304,0.093571,-0.27548,-0.0040883,0.41512,-0.13189,-0.16093,0.17625,0.032347,0.061687,0.11512,-0.23369,-0.19162,0.18625,-0.32144,0.44685,0.050464,-0.38384,0.093885,-0.18609,0.36169,0.23029,0.094109,-0.092964,-0.46874,-0.029445,0.31638,-0.51827,-0.27359,0.22286,0.22144,-0.16066,-0.22748,-0.13468,-0.16959,-0.45299,-0.08682,-0.2691,0.3534,-0.57108,0.072158,0.11758,-0.38476,0.14073,0.0309,-0.19183,-0.23382,-0.10943,0.044624,0.164,0.19861,-0.34758,0.11525,-0.43255,0.10269,0.28013,-0.32925,-0.23112,0.11324,-0.099417,0.15698,0.25651,0.36778,-0.13255,-0.12205,0.21857,-0.32776,0.080836,0.077766
 
0.17411,0.96201,-0.044646,-0.29068,-0.038573,0.6735,0.86994,0.50665,0.27736,0.772,0.26303,-0.4434,0.71338,-0.61489,0.70033,-0.83817,0.82556,-0.30225,-0.13011,0.14276,-0.46444,-0.039538,-0.60139,-0.013403,0.57052,0.045652,-0.06315,0.20768,0.20413,-0.95923,-0.59496,-0.35104,-0.59219,0.17798,-0.22436,-0.27036,0.55656,0.58056,0.77152,-0.65059,0.58548,0.58393,0.77276,0.49856,0.64485,0.16335,0.05048,0.052299,-0.63525,0.44593,0.74997,-0.44171,-0.64845,-0.77157,0.021932,0.16493,-0.36989,-0.79117,-0.81056,0.28614,-0.35743,0.84053,0.94082,0.96561,0.63316,0.54758,0.63392,-0.13035,-0.36515,-0.11419,-0.13509,-0.87593,-0.40596,-0.372,-0.60343,0.32176,-0.069016,-0.85663,-0.81338,0.25548,-0.17228,0.72066,0.24013,-0.8869,0.63073,0.15927,-0.89616,-0.39077,-0.038623,-0.32985,-0.4552,-0.51047,0.64587,0.40476,0.82858,0.095485,0.73076,-0.80306,0.97807,0.61789
-0.28947,-0.23951,0.095335,-0.309,0.2248,-0.12581,-0.19802,-0.022048,-0.49787,-0.36812,0.19435,-0.13629,0.22075,-0.27845,0.053065,0.2031,-0.19286,-0.12681,0.055163,0.32021,-0.21153,-0.092622,-0.010123,-0.13691,0.0037659,0.012123,-0.50994,-0.19512,0.11065,-0.23306,0.22253,-0.022493,-0.2979,0.21217,0.22501,-0.22386,-0.1105,0.044647,0.32273,0.22341,-0.27013,-0.1734,0.27338,0.14709,-0.079471,-0.081663,-0.22922,-0.29044,0.18586,-0.27891,-0.11104,0.11893,-0.065366,-0.3706,0.22582,0.46853,-0.14619,-0.052107,-0.16361,0.13583,-0.23083,-0.075683,0.044407,-0.18632,0.022574,-0.18541,-0.26683,-0.45783,-0.058402,-0.12665,0.25521,0.047856,-0.090231,-0.032926,0.16623,0.12129,0.09325,0.18665,0.22881,-0.030165,0.3397,-0.165,-0.028898,0.21721,0.0059539,-0.054081,0.017214,0.14886,0.22113,0.065601,-0.19227,-0.06456,0.16228,0.092949,-0.040547,0.0043306,0.35604,-0.26574,0.037977,-0.27712
0.20411,-0.27806,-0.27777,0.095009,0.18405,0.014138,-0.2515,0.02329,0.58693,0.34724,0.097301,-0.24346,-0.2009,0.038515,0.47108,0.31301,0.18289,0.23796,0.045025,-0.32329,0.1687,-0.26553,-0.071151,-0.28909,-0.077402,-0.1483,0.40415,-0.019566,0.068569,0.081273,0.22134,0.18712,0.3744,0.067166,0.020198,0.087224,0.29122,0.29423,-0.27681,-0.26044,0.30842,0.23678,-0.33347,0.84307,-0.51713,-0.14248,-0.012345,0.80866,-0.017341,0.15189,-0.026939,-0.045674,0.11998,0.33805,0.06089,-0.5867,-0.66581,0.30653,-0.19584,-0.056305,0.29012,-0.010069,-0.14314,-0.35161,-0.019786,-0.28759,0.24002,0.6646,0.31739,-0.19748,-0.11444,-0.015896,0.049832,-0.17011,-0.26132,-0.27465,0.13025,-0.12486,0.076412,0.02007,0.11655,-0.148,0.14071,-0.43525,-0.035813,0.97754,0.17976,-0.43351,-0.11795,-0.0058829,0.23789,0.0040322,-0.29533,0.14921,-0.089112,-0.0507,0.026286,-0.018248,0.10205,-0.17161
0.054036,-0.20504,-0.039895,-0.054476,0.073245,0.12731,-0.14977,0.16328,-0.72225,-0.21642,-0.091845,0.02181,0.0122,-0.012052,-0.41429,-0.12183,-0.0042676,0.16234,0.095653,0.10135,-0.30581,-0.084491,0.12666,0.21799,-0.13424,-0.10498,-0.2812,-0.064226,0.12898,0.30619,-0.0044875,-0.19637,0.057525,-0.19351,-0.20044,-0.18427,0.18249,0.060965,0.063062,0.017324,-0.025031,-0.15133,0.3247,0.020329,0.088318,-0.048554,-0.22383,0.068566,-0.10877,0.22519,-0.12192,-0.25922,0.26384,-0.1383,0.29362,0.068495,0.15511,0.068335,0.18427,-0.12517,0.11011,-0.044855,-0.14833,0.020877,0.15408,0.13457,-0.043063,0.079525,0.092708,0.011258,-0.20125,0.0028352,0.085557,-5.0494e-05,0.039224,0.14339,0.22089,-0.29217,0.16688,-0.27806,0.2249,0.097499,-0.17852,-0.14995,-0.13036,-0.014927,-0.42376,0.15002,0.30873,0.068626,0.13416,0.11005,0.18584,0.069177,0.23305,-0.28961,-0.1407,0.23139,-0.18132,0.25062
-0.21434,-0.18773,-0.019466,-0.3897,0.25509,-0.20602,-0.19589,0.16999,-0.06759,-0.18378,0.27063,-0.05322,0.036669,-0.0086491,-0.16563,-0.091277,-0.10187,-0.038287,0.46715,-0.37446,-0.070559,-0.23463,-0.17426,-0.069679,0.24415,-0.19625,0.1739,-0.43415,0.25011,0.27222,-0.13549,0.072234,0.11018,-0.073441,-0.19818,-0.063397,0.028774,-0.31131,0.22188,0.043634,0.11909,-0.23531,-0.044541,0.84994,-0.53558,-0.21878,-0.15537,0.65598,-0.30864,0.2778,0.31222,0.090553,-0.037068,0.04164,0.35938,-0.068369,-0.59381,-0.28461,0.1723,-0.25354,0.11774,-0.24081,-0.18208,-0.58568,0.040255,0.044258,0.045739,0.17579,-0.02004,-0.045758,-0.026006,-0.19276,0.18724,0.36478,-0.15646,0.29219,-0.036972,-0.039311,-0.10347,-0.28401,-0.033301,-0.16496,-0.011187,-0.26338,-0.1898,0.7922,0.41724,-0.24712,0.39035,0.053098,0.36251,0.36878,0.1454,0.30962,-0.16055,-0.088491,-0.14136,0.034572,0.2624,0.20646
-0.017494,0.20549,0.10225,0.14621,-0.018144,0.077801,-0.33412,0.10673,-0.13413,-0.17044,0.024275,0.19024,0.091103,-0.33886,-0.14843,0.034032,-0.22721,-0.08566,0.010107,-0.019887,0.15414,-0.23886,0.19974,-0.21958,0.14588,-0.039662,-0.18303,-0.27399,0.22027,-0.036278,0.25871,0.09447,0.055232,0.15839,-0.11627,-0.11454,-0.054692,-0.28256,0.46473,0.22311,-0.12637,0.091196,0.25617,0.29089,-0.40997,-0.11932,-0.039914,0.4678,0.18843,-0.048284,0.070434,0.12124,0.032802,-0.15429,0.29312,-0.3742,-0.50118,0.30392,-0.14251,0.014462,0.30267,-0.010812,-0.18301,0.15433,0.23526,0.15767,-0.27612,0.22938,-0.12549,0.17396,-0.065835,0.041481,-0.2078,-0.18753,0.11588,0.14048,-0.11705,0.088211,0.29741,-0.35452,0.25111,-0.021257,0.070144,0.062789,0.22303,0.57373,0.18043,0.15695,0.23438,0.22501,0.06708,0.0032898,-0.0088432,-0.030261,0.31465,0.23352,0.18085,0.28444,-0.0015641,0.19828
0.080243,0.010111,-0.17697,-0.033634,0.17568,-0.13077,0.37265,0.14929,0.49279,0.11209,0.049619,-0.10431,0.026315,-0.2416,0.39097,-0.13802,0.0761,-0.028393,0.20293,-0.051544,0.12185,-0.060366,0.022166,-0.26054,0.20774,0.13472,0.26495,0.24203,0.29597,0.23762,-0.22062,-0.18275,0.37457,-0.091776,0.23653,-0.10911,-0.30028,-0.12673,-0.0023987,0.17855,-0.23941,-0.14513,-0.067942,-0.07036,-0.14051,-0.32831,-0.026123,0.54658,0.10569,0.20856,-0.060732,0.19967,-0.22331,0.1917,-0.011723,0.10729,-0.11942,0.081053,-0.086366,0.0086309,0.12086,0.21177,0.016996,-0.10792,0.24504,-0.13595,0.20151,0.58917,0.2859,-0.21093,0.24939,0.076147,-0.1349,-0.050887,-0.22785,-0.21248,0.098109,-0.10369,-0.080332,0.21026,-0.18542,0.065713,0.19979,0.13634,0.20385,0.26796,0.13939,-0.075349,-0.11508,-0.23634,-0.20971,-0.45267,-0.2852,0.2733,0.25966,-0.091622,-0.39894,0.070444,-0.30905,-0.21762
-0.24965,0.17028,-0.26123,-0.10425,-0.19197,0.016908,-0.56786,0.25452,-1.1474,0.15746,-0.21692,0.020196,-0.11412,-0.11255,-0.45619,0.30002,0.25505,0.040142,0.070275,0.22341,0.031196,0.16039,-0.24996,0.19407,0.061449,0.42861,-0.13053,-0.67968,0.19257,0.3559,0.084947,0.27916,-0.20293,0.0092954,-0.069468,-0.35605,0.285,-0.36952,0.40932,-0.088341,0.10655,-0.24989,-0.086564,0.73054,0.13176,0.13875,0.0067878,0.47691,-0.079689,0.092014,0.61825,-0.29869,-0.14897,-0.512,-0.27947,-0.0011435,0.18148,0.17316,-0.22726,0.20331,-0.24315,-0.24038,0.22332,0.17392,0.081312,-0.31989,0.038405,0.064369,-0.14157,0.1777,0.30672,-0.00049513,0.12294,-0.049459,-0.19084,-0.21637,-0.21764,0.017609,0.14417,-0.12386,0.17123,0.20675,-0.17619,0.056978,0.28665,0.25801,-0.3211,-0.13053,0.30378,0.062996,0.24871,0.19977,-0.0848,0.058103,0.046001,0.30931,0.20912,-0.11181,0.22309,-0.11371
-0.39155,0.0027887,-0.18923,0.003728,0.058867,0.04049,0.042467,0.13346,0.276,0.2463,-0.0018012,-0.24793,-0.020038,-0.080208,0.33074,-0.061046,-0.094609,0.15478,-0.082532,-0.076974,0.10382,0.19582,0.35214,-0.43679,0.1776,-0.51244,0.37438,0.013091,0.052718,-0.039665,0.0068092,-0.13904,-0.12758,-0.097058,0.26612,-0.08865,0.33571,0.010907,-0.16231,0.19286,-0.15281,-0.081434,0.13933,0.37524,-0.40323,0.24772,-0.11028,0.31253,-0.16976,0.31607,-0.12189,-0.035368,0.27571,0.1273,-0.051064,-0.53365,-0.19331,-0.098742,0.1388,0.062001,-0.047352,-0.09646,0.011401,-0.34862,0.12988,-0.16304,-0.10628,0.31578,-0.048249,0.080568,-0.11547,0.047108,0.23669,-0.15452,0.060362,0.24822,-0.23719,0.32661,0.098246,-0.052643,-0.1979,0.11281,0.31571,-0.11643,-0.16869,0.60376,0.030036,-0.48184,0.38609,0.062224,-0.13727,-0.20648,-0.26172,0.13085,0.16807,0.12329,0.061831,0.17878,0.24099,0.14049
-0.081315,-0.20509,-0.20533,0.016782,-0.20409,-0.035192,0.12799,0.026921,-0.0067707,-0.07087,0.20036,-0.11683,-0.18504,-0.067188,-0.14926,-0.21293,-0.18872,0.1995,-0.0021486,-0.2036,-0.22128,0.22263,0.18225,-0.16048,-0.082427,-0.24396,0.17338,0.11524,0.0202,-0.15651,0.1722,0.22982,0.058959,-0.090011,-0.020833,0.087287,0.042914,0.12853,0.1948,0.010394,-0.27472,0.1275,0.052667,-0.054294,-0.010502,-0.090689,0.10279,0.11957,-0.16997,0.19815,0.30026,0.09417,-0.03215,-0.18932,0.17963,0.16706,-0.10339,-0.22411,-0.16848,-0.0030572,-0.14325,0.29958,-0.16761,-0.070125,-0.049648,0.29507,0.039059,-0.24422,0.032034,0.24956,0.24848,-0.050127,-0.035692,-0.085644,-0.21809,-0.16156,-0.15106,0.10858,0.10294,-0.17004,-0.16556,-0.11729,-0.22202,0.16317,0.22269,0.03801,-0.21856,-0.051041,-0.24157,-0.029656,-0.17251,-0.22448,0.16105,-0.25034,-0.06035,-0.28477,-0.11788,0.0012739,0.065099,0.058063
-0.18431,0.10255,0.041213,-0.21312,-0.051234,-0.12751,-0.040904,0.24591,-0.035203,0.19733,0.086546,-0.069636,0.23344,-0.29748,0.34876,0.034305,0.026735,0.0021072,0.12387,0.086212,-0.054617,-0.23012,-0.11332,-0.032896,-0.064121,-0.45021,0.39004,0.012679,0.024016,0.00023542,-0.30407,-0.1223,0.32326,-0.053805,0.0011187,0.018147,0.27895,-0.12329,0.23414,-0.20871,-0.27621,-0.048912,-0.24223,0.3091,-0.15174,-0.16441,-0.23644,0.56122,-0.066008,-0.064338,0.040252,-0.13954,0.094609,-0.1784,-0.21128,-0.49836,-0.68298,-0.23763,-0.35999,0.010716,0.11105,-0.032314,0.049867,-0.28951,-0.31031,-0.22447,0.20713,0.42271,-0.21639,0.13849,0.15566,0.09339,0.092271,-0.11535,-0.075773,-0.2189,0.066895,0.22122,-0.26496,-0.23017,-0.09414,-0.024532,-0.051321,-0.020152,-0.080015,0.38381,0.14126,-0.25173,0.031156,-0.16462,-0.035038,-0.3787,0.19381,-0.017861,-0.057702,0.17313,-0.18545,0.092328,-0.27379,0.047883
-0.077327,-0.18726,-0.37441,-0.61264,-0.010225,-0.23933,-0.043542,-0.15027,0.24155,-0.08894,-0.23411,0.21185,0.017768,-0.1022,-0.23058,0.04996,0.037144,-0.16931,0.18819,-0.10053,0.038093,0.18682,0.31446,-0.073566,-0.21421,-0.41578,0.32859,-0.077781,0.16865,0.22431,0.017202,-0.0050238,-0.20574,0.023312,0.048979,0.23646,0.18462,-0.30772,0.090139,-0.055032,0.089831,-0.14387,-0.057869,0.20473,-0.40856,0.27007,-0.17243,0.41921,-0.31145,0.35784,0.40908,-0.2279,0.0528,-0.14155,0.31155,0.0071872,-0.47137,0.2234,0.21411,-0.013823,-0.11758,0.094387,0.27147,-0.4655,0.012645,-0.081905,0.090141,0.27894,0.073633,-0.22348,0.27919,0.24057,-0.20309,0.14895,-0.13221,-0.024449,0.053854,0.000954,0.36174,0.17825,-0.14992,-0.080685,0.037035,0.063898,0.21534,0.16088,0.2488,0.090907,0.095571,0.054374,0.33352,0.39672,-0.095385,-0.0033306,0.2608,-0.052925,-0.24631,-0.19426,0.094404,0.25005
-0.36064,0.28941,-0.16019,-0.3893,-0.2952,-0.25818,-0.074801,-0.13062,-0.66753,-0.05581,0.021926,-0.24484,-0.047206,-0.29446,-0.18268,-0.32231,-0.049029,0.23738,0.17798,0.4529,-0.12781,0.063078,-0.26308,0.02271,0.023269,0.36659,-0.41636,-0.11276,-0.019618,-0.239,-0.035378,0.20377,-0.067407,-0.050777,-0.096019,-0.31134,0.35284,0.19375,0.42111,-0.24668,-0.085704,0.060739,-0.16176,-0.054173,0.2171,0.19586,-0.24263,-0.56918,0.1827,0.10978,-0.010368,0.072008,0.31295,0.09658,0.11042,0.54401,0.45671,-0.29897,0.3377,-0.11,0.085847,0.099457,-0.11563,-0.12123,-0.13996,-0.031233,0.18423,-0.70817,-0.23105,0.22353,0.11146,-0.0078052,-0.22343,-0.13227,-0.27175,0.26985,0.21155,-0.016759,-0.18138,0.25024,0.04391,0.36301,0.17849,0.15592,-0.025422,-0.44892,-0.10241,0.21702,0.2741,-0.28364,0.099666,0.32565,0.35606,-0.12407,-0.31835,0.28529,0.34807,-0.29508,-0.27551,0.013426
0.067533,0.22694,0.38396,-0.11815,-0.18799,-0.1851,0.12962,0.34586,0.43424,-0.078941,0.25828,-0.11449,-0.28201,0.3978,-0.13643,-0.036159,-0.23574,-0.16667,0.1917,0.14604,0.21495,0.037831,-0.014649,0.15323,-0.13807,0.074017,-0.070967,0.35741,0.039186,0.12156,-0.24204,0.026043,0.020848,0.13453,-0.26758,0.29524,-0.0066834,-0.18427,-0.28101,-0.13576,0.15737,-0.079549,0.32038,-0.73823,-0.14544,-0.13408,0.24555,-0.19594,-0.084444,-0.16075,0.065171,0.20059,-0.19033,-0.00062035,-0.21782,-0.16759,0.24017,-0.010223,0.20901,0.20399,0.17048,0.056805,0.16326,0.068033,-0.20035,0.23199,0.21848,-0.42806,0.012474,-0.28677,-0.065308,0.24324,0.18953,-0.16644,0.15726,-0.15392,-0.10483,-0.21853,-0.15156,0.10148,-0.015085,0.0013461,0.13115,-0.068913,0.3051,-0.5619,0.21912,0.10722,0.059135,0.13388,-0.032021,0.25815,-0.18961,0.018841,0.11324,-0.22031,-0.033423,-0.26162,-0.075402,0.18013
0.16939,0.13971,0.20269,0.18422,-0.14677,0.075034,0.51928,0.051097,0.073177,-0.23142,-0.24981,0.36081,-0.070122,0.21599,-0.16626,0.0042736,-0.05912,-0.056168,0.025261,-0.18723,-0.14945,0.25838,-0.03138,-0.17276,-0.21845,0.3202,0.1775,0.22562,-0.22407,-0.23598,0.23164,-0.30212,0.024471,0.097105,0.0024217,-0.2165,0.014046,0.4102,-0.072404,-0.025894,0.23592,0.29553,-0.00877,-0.33797,0.45176,-0.10825,-0.12055,-0.89651,0.30883,0.024406,-0.50904,0.28563,-0.13296,0.19118,0.20413,0.42653,0.12877,-0.19127,-0.13279,-0.026077,0.21823,-0.19351,-0.048531,0.25424,0.25372,0.27152,0.056265,-0.030014,-0.047847,-0.32868,-0.073266,0.35694,-0.31214,-0.050219,0.17787,0.11919,-0.17723,-0.28623,-0.088386,0.18434,0.12007,-0.15619,-0.16024,-0.12957,-0.0075609,-0.48076,-0.116,0.41033,-0.25038,0.14576,-0.39317,-0.18328,0.19,-0.30711,0.0052628,-0.24618,0.24767,0.075669,0.078281,0.18153
-0.20173,0.2052,0.22934,-0.32417,-0.057787,-0.073886,-0.44431,-0.15294,-0.37835,-0.12463,-0.037979,0.11261,0.13333,-0.097354,-0.33424,-0.16826,0.11071,-0.30579,-0.027578,0.17267,-0.13308,-0.25573,0.18914,0.029518,-0.16516,0.01819,-0.62326,-0.42752,-0.46579,-0.18733,0.29739,-0.16206,-0.093547,0.30806,0.16783,0.0070913,0.348,-0.26375,0.45515,-0.28301,-0.11266,-0.27702,0.35456,0.045127,-0.073053,0.20888,-0.079083,0.10548,0.1265,0.11726,0.28247,-0.35901,0.23908,-0.045045,-0.13908,0.42267,0.20745,-0.28894,-0.17587,0.11259,-0.10885,-0.34396,0.089494,-0.12364,0.19115,-0.12019,-0.038645,-0.46198,0.2067,-0.10267,0.17373,0.047398,-0.10651,0.31623,0.013495,0.18205,-0.058479,0.0089126,0.27521,0.023474,-0.11732,0.17337,0.0078182,0.026357,0.10933,0.081007,-0.01356,0.54501,0.22588,-0.29139,0.2989,0.35743,-0.0091691,0.24954,-0.2248,0.18111,-0.00058952,0.061005,-0.29846,0.10143
0.33577,-0.034602,-0.14859,0.1212,0.11409,0.12679,0.14844,-0.12889,0.26849,0.19069,0.1716,0.17182,-0.1724,-0.19419,0.053503,-0.0066091,-0.24411,-0.18223,0.22311,0.047352,0.17368,0.13314,0.42656,-0.12198,0.38023,-0.0381,0.048495,-0.004195,-0.083229,0.2705,-0.17725,-0.12242,-0.05323,-0.23666,0.029989,-0.039156,0.23704,0.29261,-0.29499,-0.05536,0.051646,0.28461,-0.2422,0.32116,-0.30258,0.17024,-0.10733,0.33192,-0.31951,-0.031156,0.17396,0.14799,-0.29807,0.18248,0.010391,-0.35291,-0.14432,-0.2209,-0.1715,0.037418,0.10219,-0.13466,-0.01314,-0.060112,-0.17009,-0.020108,0.15625,0.20883,0.042604,-0.052433,0.051658,-0.11612,0.15278,0.06054,-0.095371,-0.15582,-0.35746,0.25542,-0.2611,-0.11994,-0.33357,-0.07771,0.16377,-0.062603,-0.20384,0.1714,0.3432,-0.17196,-0.19561,0.086929,0.1556,-0.45724,-0.34489,0.19966,0.13043,0.29553,-0.17022,-0.037465,-0.19663,0.05199
0.11781,0.26771,-0.0059913,0.077071,0.049209,0.11715,0.26748,-0.15715,0.25222,0.17694,-0.21587,0.29196,0.10692,0.25833,0.073571,-0.053475,0.11629,-0.25585,-0.24535,-0.11022,0.22606,0.0066792,-0.053951,0.30338,-0.0075577,0.034706,0.40166,0.4589,-0.2437,0.14287,-0.052417,-0.19043,-0.18639,0.18764,-0.21332,-0.033726,-0.20683,0.16407,-0.45729,0.15497,0.193,0.29158,0.10363,-0.12713,-0.049095,0.092241,-0.046424,-0.079716,0.31722,-0.35374,-0.30681,0.044029,0.24907,0.074251,-0.28146,-0.082861,0.39442,-0.15143,0.10035,-0.2199,-0.32729,0.034819,-0.12006,0.32329,-0.23482,0.31355,-0.18499,-0.12812,-0.21781,-0.14097,0.045153,0.14295,0.10188,0.20823,-0.11332,-0.09485,0.21872,-0.022556,-0.3387,0.31416,-0.21259,0.15801,-0.2412,-0.12683,0.11973,-0.23124,-0.24981,0.18371,-0.24112,0.17031,0.27185,-0.10853,-0.1791,0.0037343,0.20474,0.22287,0.25423,0.10818,0.18349,-0.12022
-0.25976,-0.027509,-0.045219,-0.31214,-0.4143,-0.25187,-0.19533,-0.13103,-0.87771,-0.0068306,0.12332,0.31011,0.42228,0.18592,-0.5307,0.00244,0.23495,0.11584,-0.084242,0.31834,-0.20486,-0.053667,-0.25407,0.37454,0.064864,0.47272,-0.65625,-0.12837,-0.36747,-0.21069,0.098576,0.055987,-0.2629,0.064903,-0.30484,0.086501,0.19699,-0.23599,0.21979,0.24402,-0.088493,-0.35334,0.10792,-0.45391,0.28335,-0.097848,0.03519,-0.37648,-0.10187,0.2203,0.23667,0.034194,0.41879,-0.24206,0.063321,0.55477,0.74909,-0.0094692,0.3595,-0.12205,0.15922,-0.19839,0.028499,0.23834,0.37122,0.23273,-0.062052,-0.95962,-0.037818,0.10498,0.24939,0.06557,0.07124,0.18773,-0.079239,0.30524,0.36834,-0.11429,0.36511,-0.33618,-0.12857,-0.033937,-0.34986,0.1582,0.45353,-0.43509,-0.54603,0.73387,0.26674,-0.048123,0.23081,0.70516,0.28045,-0.031532,-0.18419,0.14897,0.14587,-0.19188,-0.0091066,0.29603
-0.35479,-0.24112,-0.35032,-0.23834,-0.19034,-0.22526,-0.12261,0.11896,-0.13561,-0.18664,-0.035178,-0.17631,0.34161,0.10727,0.087616,0.25089,0.21581,-0.1853,0.14245,0.065808,0.18867,0.2822,-0.25325,0.10108,-0.13899,-0.065118,0.15678,-0.34578,-0.060873,0.21316,-0.11431,0.056838,-0.033214,0.11859,0.02712,0.0063066,0.0030539,-0.31766,0.50636,0.256,0.10696,-0.32684,-0.13766,0.4699,-0.19753,-0.14536,0.092301,0.46473,-0.27792,0.063904,0.48711,0.13582,0.18015,-0.24958,-0.0055752,-0.085673,-0.52591,-0.13544,-0.080565,-0.096249,0.15094,-0.18854,0.29306,-0.12347,0.10938,-0.065208,0.19382,0.24432,0.0030072,-0.13421,-0.20547,0.15811,0.27182,0.051386,0.24565,-0.1854,0.12757,-0.14069,0.0067409,-0.28962,0.10192,0.1681,-0.016713,-0.20506,-0.062966,0.47405,-0.061721,0.13901,0.32193,-0.22392,-0.059112,-0.14922,0.082806,0.30769,0.05958,-0.0056633,-0.018023,-0.25735,-0.21598,0.2546
0.067431,-0.16924,-0.021572,0.039257,0.10701,0.11182,0.32849,-0.0054329,0.84405,0.19996,0.19684,-0.14276,0.14157,0.26437,0.086793,0.31172,0.030093,-0.04871,-0.27296,-0.32842,-0.21285,0.28311,0.31769,-0.17588,-0.046894,0.048028,0.45672,0.37597,0.33518,-0.16112,0.22672,-0.14022,0.2044,0.1177,0.30297,0.017963,-0.31945,0.19735,-0.33007,-0.096682,0.013244,0.069003,0.10463,0.26001,0.095141,-0.03244,-0.095185,0.58349,-0.15056,-0.23227,-0.036443,-0.18732,-0.09555,0.26087,-0.22348,-0.50734,-0.49541,-0.1124,-0.17744,-0.29725,-0.26183,0.068345,0.14413,-0.076866,-0.052134,0.2539,0.15332,0.61391,0.22855,0.30533,-0.18657,0.084053,-0.10541,-0.32289,0.26579,-0.10609,-0.31123,0.25526,-0.30869,0.03284,-0.23175,0.030843,0.13521,-0.35756,0.10574,0.39576,0.24333,-0.4022,-0.053052,0.27681,-0.14872,-0.64644,-0.056137,-0.13261,0.11076,-0.24542,-0.05454,-0.13245,0.25599,0.078576
-0.021863,-0.20465,0.2775,0.12937,-0.30682,0.08085,0.1818,-0.25357,0.1938,0.15133,0.030511,-0.10716,-0.16192,-0.1833,-0.36657,-0.028501,0.1905,-0.13304,-0.1642,-0.23283,-0.13114,0.024263,-0.1732,0.32579,-0.26838,-0.0014619,0.071031,0.054852,0.079309,-0.24215,-0.17908,0.28162,-0.28287,0.14837,-0.30937,-0.30051,-0.20596,-0.23471,0.12083,0.083844,0.2457,0.14457,-0.11556,0.068989,-0.096948,0.080857,-0.16448,-0.16191,-0.1229,-0.31625,0.16708,0.1813,0.11217,-0.2222,0.2679,0.1501,-0.0091974,-0.18967,-0.27074,0.13668,-0.03351,0.05433,0.26903,0.18171,-0.23721,-0.10434,0.090222,-0.2831,0.13571,0.10949,-0.06439,0.29291,0.11399,0.25474,-0.17068,0.11484,0.082939,-0.088515,0.18841,-0.22929,0.30921,0.067959,-0.26993,-0.11063,0.17336,-0.19087,-0.37594,0.22689,0.045459,0.26992,0.022594,0.05354,-0.19247,-0.1836,-0.29656,0.26851,-0.116,-0.21103,-0.16334,-0.19199
-0.31808,0.1443,0.098915,-0.25661,-0.13284,0.086584,-0.040012,-0.072832,-1.0704,0.030604,0.17189,0.025879,0.27423,-0.19542,-0.62505,-0.20102,0.16568,-0.28556,-0.052634,0.21042,-0.070543,0.10463,-0.23144,-0.19023,-0.1461,0.15658,-0.51355,-0.4102,-0.36967,-0.14342,0.15747,-0.32441,0.16284,-0.097109,-0.27088,-0.16646,-0.020204,-0.040875,0.1563,0.2271,-0.18596,0.064079,-0.11469,-0.42753,0.13801,-0.21482,0.07428,-0.48701,0.17451,0.042909,0.22503,-0.14507,0.043586,-0.1979,0.22264,0.33353,0.18942,-0.15973,-0.20006,0.21013,0.24305,0.11596,0.12652,0.012155,0.04205,0.12841,-0.092121,-0.3668,-0.047942,0.10252,-0.19232,-0.18328,0.32707,0.1415,0.1397,-0.04603,0.037847,0.23961,0.30575,-0.30499,0.16512,-0.034756,-0.025732,0.23235,0.11101,-0.11134,-0.10542,0.26943,0.43444,-0.094098,0.36908,0.59486,0.25494,0.27981,-0.035708,-0.22246,0.36303,0.10381,-0.1004,-0.18109
-0.099202,-0.13131,0.11081,0.14375,-0.20857,0.26992,-0.094992,0.085262,0.12752,-0.14178,-0.13123,-0.332,-0.12259,0.21463,0.3833,-0.18414,0.10051,0.26936,-0.18866,0.17806,0.057021,-0.30994,0.22336,-0.14093,-0.030856,-0.16064,0.2391,0.13407,0.31894,0.16979,-0.26964,0.10234,0.0073578,-0.040699,-0.14654,-0.12241,-0.033236,0.049134,-0.018429,0.11082,0.11315,0.03474,-0.11303,0.16203,-0.10282,0.25115,0.028158,0.059172,-0.29051,-0.064748,-0.31786,0.062575,-0.384,0.33513,0.047692,-0.32211,0.063081,0.29199,0.20501,0.27624,-0.067483,0.092563,-0.23685,0.044611,-0.0064411,-0.018627,-0.16919,0.014323,-0.18827,0.16251,0.1134,-0.2088,-0.17446,-0.13168,-0.060238,0.079076,-0.054613,0.23398,0.14434,-0.086078,-0.09484,-0.29583,-0.11181,-0.087875,-0.15562,0.13103,0.16611,0.083484,-0.23522,0.23982,-0.082124,-0.26474,-0.33718,-0.027874,0.0027539,-0.20843,0.24209,0.31907,-0.22652,-0.11247
0.24807,0.025509,0.3852,0.26341,-0.14802,-0.25753,0.47082,0.29595,0.53346,-0.12495,0.0050984,0.38147,-0.3894,0.12074,-0.096466,0.02621,0.25804,-0.19367,-0.37578,0.21704,0.036341,-0.021234,-0.0032581,0.15204,0.14369,0.13525,0.27689,0.51846,-0.10073,-0.26871,-0.094408,-0.25428,-0.013983,0.13276,0.048054,-0.014081,-0.37783,-0.054291,-0.56116,-0.17678,-0.17235,-0.060835,-0.20867,-0.77388,0.42616,0.14709,0.33574,-0.48898,0.26569,0.1161,-0.53015,0.10817,-0.2328,0.10594,-0.14519,-0.30144,0.1649,-0.06507,-0.20385,-0.24963,0.26136,-0.039401,0.046955,0.31075,-0.14581,0.020941,-0.073279,0.30901,-0.026345,-0.29679,-0.12312,0.052326,0.065838,-0.16909,-0.12239,0.30126,-0.19722,-0.10932,0.15468,0.37334,0.022609,-0.1782,-0.22093,-0.14495,-0.10539,-0.50567,0.11875,-0.38224,-0.15829,0.16614,0.016652,0.030863,-0.28657,-0.098384,-0.294,0.08679,0.16168,-0.064897,-0.033817,0.077554
0.22294,0.061715,-0.029149,0.043357,0.071627,0.34159,-0.39813,0.16572,-0.55328,0.14966,0.10481,-0.22419,-0.032512,0.19853,-0.050384,0.26175,-0.19499,-0.040322,-0.15397,-0.12713,-0.27859,0.027166,0.071034,-0.28266,-0.22654,0.2171,-0.32695,-0.028319,0.10354,0.26991,0.14562,-0.057688,0.1501,0.0064871,-0.069042,-0.19111,0.11664,0.044467,0.34481,0.21726,-0.14173,0.015044,0.0066677,0.25733,0.075593,-0.056825,-0.12004,0.52768,0.043967,0.083509,0.46293,-0.089458,0.030594,-0.18847,-0.28429,-0.14989,-0.10517,-0.27651,0.10578,0.12068,-0.15583,-0.022806,-0.069216,-0.28641,-0.0783,0.15054,0.23073,0.26174,-0.24469,-0.13738,0.052523,0.14801,0.16039,0.014471,0.23906,0.072654,-0.16638,-0.14568,0.16316,0.059796,-0.028269,0.207,-0.076947,-0.032595,-0.22121,0.47766,-0.24925,-0.22364,0.012264,0.27476,0.059345,0.16054,0.28435,0.2704,-0.14098,0.30035,0.21863,-0.27796,0.093789,-0.13207
-0.16161,0.095917,0.13027,-0.44918,-0.17569,-0.15395,0.0035312,-0.071521,0.81769,-0.047509,-0.20235,-0.22252,-0.2608,-0.11423,-0.0019681,0.28378,0.23841,-0.23399,-0.057192,-0.02871,-0.022752,-0.15126,0.0080548,-0.4269,0.10013,-0.56835,0.58958,-0.016742,0.3814,0.20711,-0.18196,-0.065542,-0.13717,-0.37363,0.20964,0.15493,0.12361,-0.076493,-0.093962,0.27498,0.02479,0.24695,-0.04789,0.52262,-0.19443,0.083415,-0.086072,0.7754,-0.23132,0.19858,-0.13312,0.005839,0.011655,0.059436,-0.1947,-0.5404,-0.5114,-0.10175,0.0059264,-0.22669,-0.19982,-0.26167,-0.18808,0.056469,0.12207,-0.12014,-0.2228,0.60125,-0.22481,0.0039985,0.2255,-0.10154,-0.19008,0.26198,0.010907,0.11836,-0.35217,0.04329,0.090985,0.045931,0.1151,-0.19381,-0.12307,-0.027974,-0.14906,0.64871,0.24609,-0.52843,0.24775,0.19668,-0.17227,0.023211,-0.25607,0.098927,-0.15503,0.16422,0.037637,0.073143,-0.26059,-0.12342
0.36085,-0.037764,0.21564,-0.10629,0.03023,-0.29823,0.14384,-0.0021803,0.71177,0.050524,-0.18767,-0.13257,0.12141,-0.00071577,0.072431,-0.16829,0.22849,0.14235,-0.16974,-0.088965,0.38307,0.20368,-0.0031028,-0.31916,-0.018749,-0.25194,0.55423,-0.042795,0.048235,0.2041,-0.11397,-0.21415,0.22944,-0.028923,-0.128,-0.013825,-0.084709,0.057466,-0.37613,-0.089527,-0.074863,0.28333,0.14944,0.27956,-0.14368,0.0075133,0.16096,0.073287,0.088647,0.10988,-0.41137,-0.043253,0.11095,0.30551,0.08426,-0.21078,-0.69167,0.25779,-0.23445,-0.13381,0.21634,0.024096,-0.11263,0.057201,0.13524,-0.055375,-0.28983,0.73403,0.071303,0.20767,-0.17398,-0.21394,-0.026521,0.23059,-0.20713,-0.17006,-0.22187,0.05771,-0.12051,-0.2006,-0.36762,-0.35467,-0.092935,-0.16768,-0.27503,-0.016802,0.62067,-0.47273,-0.25379,-0.044917,-0.37334,-0.62396,0.14378,-0.073894,0.3191,0.043006,-0.032698,-0.17875,0.060541,0.22422
0.0094242,-0.024125,0.024131,0.22966,0.20985,-0.18984,0.37407,0.23471,0.034155,0.12528,-0.2081,0.36607,0.18127,0.22217,0.13773,0.0018456,0.13448,-0.26839,-0.31363,0.30067,0.2591,-0.27052,-0.25166,-0.17675,-0.34864,-0.10119,0.19959,-0.050702,-0.07509,-0.36208,0.15655,-0.17128,-0.14377,-0.0021867,0.12078,-0.1883,0.079121,0.067712,-0.30028,-0.13316,0.12472,-0.10024,0.29515,-0.56378,0.42739,-0.083881,-0.14989,-0.92398,0.27853,-0.1285,-0.46366,-0.21297,-0.0096955,0.15828,-0.021473,0.075851,0.21397,-0.019631,-0.02419,-0.049725,0.23088,-0.21915,0.13787,0.45362,0.031157,0.24777,0.16939,-0.20012,-0.034576,0.27024,0.14092,0.20242,-0.31882,0.16514,0.082501,0.22944,0.047782,0.014403,-0.02618,-0.070046,-0.3477,0.21038,0.097977,0.39713,0.18398,-0.7355,-0.13971,0.037877,-0.3406,0.021233,-0.35188,0.087787,0.042546,-0.021417,-0.075078,-0.2521,0.33146,0.054133,-0.16107,0.28961
0.18671,-0.16296,0.19652,0.39118,0.31448,0.094367,0.38235,-0.22284,0.79002,0.40785,0.2942,0.037557,0.04778,0.086659,0.35534,0.25056,-0.10291,0.0076091,-0.32557,-0.087153,0.060062,0.023551,0.27852,-0.10029,0.40849,0.064378,0.63509,0.20694,0.34285,-0.17354,-0.14648,0.26995,-0.17193,-0.41868,0.099136,-0.17895,-0.33538,0.23245,-0.23966,0.058107,0.25159,-0.092416,0.18039,0.30456,-0.025056,-0.21976,0.014246,-0.0013198,-0.19081,0.043583,-0.082568,0.2249,-0.024473,0.44041,-0.043246,-0.23763,-0.40997,0.051504,0.14205,-0.31228,0.13492,0.044228,-0.22305,-0.04779,-0.16007,-0.15024,-0.075717,0.47719,0.29365,0.069157,-0.056383,0.26412,0.060349,-0.051726,-0.069977,0.14003,-0.22438,-0.23802,-0.098133,-0.083997,-0.27812,-0.31021,0.16754,0.16219,-0.21563,0.11746,0.20844,-0.34774,0.11099,0.1074,-0.064541,-0.47653,-0.13759,-0.18715,-0.17981,0.094648,0.024511,0.04069,0.26449,0.20109
0.25606,-0.32607,0.10547,-0.15391,0.092354,-0.10972,0.41498,-0.21671,0.84376,0.17521,-0.16106,-0.15705,-0.21074,0.11717,0.40633,0.22716,0.104,0.25125,0.22164,-0.16582,0.22842,-0.31992,-0.022223,0.18694,-0.12063,-0.59066,0.4722,0.22792,0.021476,-0.04843,0.098963,0.14186,0.11861,-0.0089188,0.25303,0.15263,-0.36888,-0.047796,0.0019952,0.1408,0.27302,0.14922,-0.072586,0.12573,-0.25184,0.28066,0.3564,0.25496,-0.048303,0.20907,-0.26762,-0.18506,-0.082429,0.014432,0.060477,-0.31496,-0.49039,-0.1335,0.097464,0.054813,0.1906,0.24723,0.05467,-0.073943,0.063033,0.11375,-0.17945,0.54637,0.09075,-0.29303,-0.083705,-0.16314,0.056342,-0.0060592,-0.072572,-0.22315,0.09951,0.056773,-0.013347,-0.032498,-0.18325,0.1077,0.10948,0.17819,-0.065198,0.026308,0.21811,-0.21945,-0.33189,0.16838,-0.23039,-0.13129,-0.2604,0.064413,0.24961,0.084404,-0.29952,-0.088658,0.044065,-0.011056
-0.23619,-0.036425,-0.083374,-0.081747,-0.025515,0.16413,-0.1378,-0.15865,-0.20186,-0.1676,-0.077192,-0.18881,0.16941,-0.30448,-0.00106,0.21444,-0.18875,-0.22663,-0.10143,-0.022616,-0.047859,0.083196,0.090641,-0.06778,0.054484,-0.35103,-0.25653,-0.031449,0.21707,0.0048678,0.15143,0.019042,-0.093998,-0.046488,0.065426,-0.11286,0.17021,0.051408,0.14084,0.063966,0.19915,-0.13469,0.038932,0.27351,-0.43747,0.14099,-0.11576,0.70094,-0.36984,0.15915,0.30417,0.29105,0.042698,-0.14876,0.2342,-0.22851,-0.42967,0.25745,0.1283,0.004659,-0.23454,0.031129,-0.16157,-0.22685,-0.066435,-0.26142,0.19504,0.092085,0.30874,0.25494,0.20151,0.058506,-0.19513,0.073565,0.29402,-0.15304,-0.23245,0.0053576,0.17968,-0.30097,0.27031,0.14554,0.0014494,0.20483,-0.14088,0.15786,0.022093,-0.222,0.1516,0.23594,0.1587,-0.046534,0.20618,-0.10517,0.04696,0.23139,0.17564,0.12414,-0.21555,0.22572
-0.11518,-0.096878,0.30381,-0.3007,-0.30848,0.076641,-0.34358,0.32752,-0.49859,-0.39234,-0.0058639,-0.0013919,-0.17908,-0.31381,-0.080042,0.17293,0.28933,0.11755,0.19856,0.40435,0.020133,0.029746,-0.28297,-0.046738,0.065845,0.51874,-0.58393,-0.20941,-0.19788,-0.16604,0.12608,-0.069335,0.10595,0.42184,0.07357,-0.32355,-0.13911,-0.24634,0.49768,-0.29374,0.12863,0.032767,0.40218,-0.21349,0.35006,0.054423,0.087019,-0.67999,0.22222,0.27393,0.13137,-0.37065,-0.096312,-0.2641,0.17232,0.73363,0.58973,-0.24676,0.072621,-0.068465,-0.17863,-0.34394,0.0084098,0.40943,0.056314,-0.12645,-0.24027,-0.25186,0.23241,0.17076,0.055846,-0.013211,0.27548,0.11236,-0.18817,0.049949,-0.11338,-0.15013,0.097846,0.11584,0.17358,0.036914,-0.37772,-0.18059,0.29116,-0.16213,-0.10946,0.62888,0.26083,0.11572,0.10072,0.12001,0.067861,0.0069335,0.16307,0.22356,0.43816,-0.10468,0.17417,0.13714
-0.23355,0.14437,0.0018891,-0.50471,-0.010306,-0.1761,-0.63534,-0.018897,-0.52985,0.14065,-0.10998,0.096716,0.41028,-0.31315,-0.091826,-0.011439,-0.15819,-0.043695,0.41431,-0.07414,0.23295,-0.030988,-0.10184,0.014295,-0.15398,-0.090546,-0.30517,-0.53694,0.26716,0.30732,0.092693,0.045577,-0.30194,-0.045118,0.11471,0.054689,0.15299,-0.10683,0.35593,-0.13746,0.098201,-0.0063637,0.079781,0.72059,0.14441,-0.028941,0.12629,0.40314,0.20447,0.13694,0.15476,-0.13243,0.37043,-0.34845,-0.20293,0.13761,-0.24168,-0.14037,-0.17596,-0.28699,-0.18298,-0.14796,-0.18812,-0.28392,0.11289,-0.11253,-0.11937,0.2308,0.17231,0.031945,0.0022945,0.13392,-0.14768,-0.076936,-0.22877,-0.0052075,0.25099,0.30563,-0.046823,0.096353,0.40208,-0.062481,0.18712,-0.077123,-0.17475,0.30636,0.18248,0.080635,0.22419,0.053158,0.045283,0.11307,-0.21793,0.17045,-0.085169,-0.19076,-0.0077691,0.023581,0.11503,0.27556
0.1574,0.15477,0.30484,0.14948,0.027019,0.072888,0.059311,0.1077,-0.40411,-0.19746,0.13145,-0.08825,0.075806,0.2526,-0.053873,0.17643,0.061077,0.06953,-0.15606,-0.019475,0.14671,0.18046,-0.21581,0.14521,0.21194,0.32735,-0.33763,-0.077247,0.14535,-0.28873,-0.10985,-0.12599,0.21891,-0.08446,0.05785,0.18961,-0.011799,-0.12939,-0.27684,-0.21918,0.11877,-0.23283,0.10824,-0.46486,0.20993,-0.1739,0.03635,-0.55036,0.34649,-0.17906,-0.03256,-0.12616,-0.31135,-0.044112,-0.040988,0.27551,0.35593,-0.30648,0.10273,0.11637,0.060848,-0.2847,-0.14427,-0.11844,0.10892,0.29897,0.18665,-0.37537,-0.25575,0.14826,0.21846,-0.10538,0.0037253,-0.035539,-0.060543,0.28571,0.28566,-0.19042,-0.068677,0.16516,0.089458,-0.16911,-0.13792,0.19456,-0.27001,-0.5299,0.0028491,0.026354,-0.07176,0.29119,0.015584,-0.22519,-0.04147,0.13065,-0.081585,-0.27015,0.31724,-0.015463,-0.10099,-0.14319
0.01611,-0.2481,-0.044646,0.34358,0.04356,0.11355,0.46227,0.071763,0.99203,0.22338,-0.017428,-0.12247,-0.38615,0.19232,0.31142,0.14172,-0.32573,0.11863,-0.38382,-0.11124,0.071359,-0.21447,0.19853,0.15001,0.4205,-0.61703,0.61225,0.36664,0.49417,0.07204,0.12208,-0.14052,-0.12679,-0.35493,-0.044812,-0.16407,-0.24414,-0.10041,-0.51132,-0.18351,0.097976,-0.0095246,-0.35987,0.16007,-0.31601,0.12467,0.22111,0.55656,-0.0044094,0.019489,-0.20667,0.26083,-0.22301,0.54704,-0.30752,-0.5606,-0.39177,0.027368,-0.024469,-0.12758,0.27526,-0.0042469,0.031937,-0.2469,0.036051,0.0077518,-0.10094,0.65614,-0.042174,0.058646,-0.28843,-0.093613,-0.36409,-0.18841,0.21641,0.12938,-0.32191,-0.16529,-0.20112,0.19342,-0.4178,0.085859,0.19569,0.13924,-0.24395,0.12681,0.63625,-0.14489,-0.27529,-0.22432,-0.22509,-0.76166,-0.0017321,-0.099066,0.20431,0.042482,-0.18453,-0.26236,0.083,0.23896
-0.27164,-0.29179,0.06801,-0.071488,-0.040708,0.25777,-0.071711,0.04048,-0.61555,0.19845,0.088493,0.095057,-0.21089,-0.018813,-0.049479,-0.15235,0.16706,-0.29967,0.28464,-0.075806,0.039721,-0.18945,0.043838,-0.18183,-0.11761,0.12824,-0.11471,-0.352,0.23167,-0.12323,0.14325,-0.22704,0.20508,0.096941,-0.2267,-0.12294,0.0037038,0.061951,0.23501,0.14645,0.078008,0.010887,-0.11291,0.009093,0.13154,-0.057187,-0.088248,0.28581,-0.082211,-0.14131,0.15667,-0.041277,-0.2682,-0.24952,0.20378,-0.10837,0.022404,-0.074787,-0.083706,0.29148,0.07734,-0.2286,-0.04494,-0.014092,-0.15138,0.04797,0.15318,-0.044288,-0.27346,-0.029967,-0.22418,-0.22185,0.21288,-0.12502,0.16201,-0.17245,0.01241,0.26326,-0.10604,0.093994,0.32251,0.02608,0.14388,-0.23062,-0.20774,0.45412,0.078137,0.11275,-0.16006,-0.18721,0.18875,0.045479,0.2174,0.38282,0.28637,0.23014,0.096847,-0.21428,0.027982,0.15422
-0.097803,0.10685,-0.35079,0.024349,-0.11678,-0.28881,0.16952,-0.26789,0.43266,0.21994,-0.17685,0.052415,-0.3624,-0.227,0.22847,-0.026782,-0.14451,0.085776,0.1258,-0.23016,-0.15964,0.17143,-0.10045,-0.3793,0.27502,-0.51257,0.56665,0.24052,0.10959,-0.23417,0.097546,0.086174,0.18337,-0.202,0.063836,-0.12542,0.22152,0.26977,0.12442,-0.0087997,-0.10679,-0.24021,0.048694,0.14418,0.17403,-0.26518,0.19653,0.51624,-0.38462,0.20849,0.21638,-0.18174,0.11327,0.1942,0.21446,-0.50486,-0.34489,0.33701,-0.25896,0.17057,-0.075155,-0.033217,-0.086692,-0.30341,0.2312,-0.19363,0.11731,0.70386,0.11059,-0.15888,-0.2599,-0.21793,0.010601,-0.10061,-0.13782,-0.27154,-0.06442,0.14299,-0.082765,-0.27995,0.19773,0.191,0.32154,-0.17295,-0.40124,0.13032,0.41454,-0.51144,-0.27252,0.16551,-0.38031,-0.027079,-0.37767,-0.1095,0.045429,-0.25363,-0.00873,0.13451,0.071834,0.085753
0.33129,0.22905,0.23352,0.31562,0.28304,-0.24699,0.2255,0.0044135,0.72739,0.2562,-0.059233,-0.22612,-0.17074,0.11719,0.36092,0.12414,-0.11576,-0.054524,-0.36914,-0.0088449,0.36611,0.27537,-0.22904,0.10828,0.020904,-0.26184,0.3178,0.23526,0.33199,-0.022714,-0.22348,-0.071586,0.14836,-0.31844,0.021144,-0.20437,-0.42227,0.19238,-0.34324,0.061959,0.074396,0.028813,-0.055619,-0.33292,0.027359,0.17276,0.19018,-0.13255,-0.10609,0.055354,-0.50693,-0.12738,-0.037101,0.085832,0.15471,-0.45572,0.064572,-0.10288,0.020583,-0.066719,0.19939,-0.13672,-0.40934,0.12431,-0.067778,0.26756,-0.12958,0.0071314,0.13246,-0.20845,0.046541,0.33236,-0.15096,0.1914,-0.28582,0.15316,0.012038,-0.039658,-0.3272,0.14741,-0.4493,0.081397,0.26438,-0.10485,-0.16857,-0.26201,-0.17275,-0.2828,-0.46141,0.064867,-0.17769,-0.1185,-0.22353,-0.28551,-0.28675,0.16002,0.16711,-0.033841,0.062165,-0.17632
-0.14361,0.043609,-0.36034,0.01774,0.15548,0.061139,-0.53469,-0.16099,-0.05021,-0.073622,-0.19039,-0.39825,0.28794,-0.21911,0.19356,-0.21086,-0.21728,-0.24946,0.12833,-0.43751,-0.25878,-0.12103,0.30463,-0.30235,-0.12628,-0.085608,-0.039256,-0.51346,0.077047,0.35737,-0.12996,-0.22072,0.028059,-0.21826,-0.27537,-0.15938,0.36757,-0.21996,0.43299,-0.13136,0.23028,-0.30833,-0.24087,0.71816,-0.08325,0.065069,-0.31894,0.64627,0.0092903,-0.1976,-0.072432,-0.070494,-0.12222,-0.22298,0.10382,0.0011551,-0.026197,-0.16793,-0.25681,0.039224,-0.26105,-0.11199,-0.17061,-0.33756,-0.0054877,-0.24357,-0.14891,0.10502,0.2905,-0.076262,0.28349,0.042246,0.11888,0.1725,0.33881,0.10032,-0.018028,-0.012433,-0.18632,0.02511,-0.12312,0.16265,-0.076795,-0.25605,0.18253,0.91138,0.050914,-0.23051,0.0038702,0.23205,0.27977,-0.08239,0.16088,0.31651,0.24663,-0.24913,0.032216,-0.1602,-0.31583,0.18994
0.37394,-0.12386,0.095912,0.34793,-0.14369,-0.17065,0.41026,0.083924,-0.067673,0.22692,0.057949,-0.14913,0.039122,-0.11694,0.24473,-0.12645,-0.052424,0.088007,-0.39237,0.11819,-0.086971,0.093741,-0.18196,0.096363,0.23574,-0.25641,0.09635,0.19984,0.23569,0.094543,-0.14761,-0.10376,-0.10641,0.036596,-0.22804,-0.16598,0.09126,0.12848,-0.1016,0.23418,0.12753,-0.017146,-0.0047566,-0.10568,0.26852,0.052526,0.21014,-0.47447,-0.071383,0.13751,-0.24374,0.049798,-0.21088,0.31936,0.04795,-0.20584,0.27441,-0.22109,0.25552,0.2703,-0.039206,0.16927,-0.31821,0.36711,-0.049339,0.43167,-0.12179,0.39066,-0.091224,-0.10167,0.022941,0.1899,-0.14716,-0.10155,0.1704,0.22868,-7.5473e-05,-0.15124,0.17641,-0.24074,-0.205,0.023699,0.20142,0.064962,-0.26732,-0.15196,0.25239,0.041463,-0.1833,0.017598,-0.47107,-0.20975,-0.016418,-0.28463,-0.25168,-0.13056,0.10341,-0.21344,-0.082985,-0.046528
0.16108,0.18237,-0.051433,0.083022,0.18543,0.2039,0.20194,0.058898,0.97036,-0.17454,-0.13226,-0.20785,0.1519,0.21548,0.047895,0.14181,0.17398,0.20436,0.10904,-0.22356,0.18093,0.16928,0.28628,-0.39158,0.37784,-0.35799,0.18788,0.23284,0.34589,-0.25363,0.27442,0.10157,0.22652,-0.18576,0.18687,0.12815,-0.33099,0.05783,-0.19672,-0.17569,0.18081,-0.11297,-0.045923,0.35523,0.028945,-0.16537,-0.17278,0.30284,-0.27681,0.16313,-0.040441,0.42827,-0.11666,0.06018,-0.11048,-0.61352,-0.78997,-0.16018,0.053248,0.23201,0.12376,0.24168,0.0090681,-0.20218,-0.26415,0.02472,-0.1839,0.81159,0.028696,-0.065606,-0.10741,0.021288,0.21793,0.14473,0.060162,-0.098855,0.13092,0.11204,-0.038829,0.047443,-0.34649,0.01322,-0.19324,-0.091959,-0.40138,0.31751,0.36373,-0.25874,-0.41532,0.31564,0.069934,-0.38053,-0.0078749,0.19524,-0.17172,-0.15067,-0.30755,-0.013255,0.26336,-0.080572
0.047697,0.18946,-0.082926,0.4172,0.1582,-0.069964,0.27685,-0.085852,0.46352,0.0055786,-0.2519,-0.17737,-0.050079,0.32901,0.40571,-0.24628,0.22679,-0.18502,0.05593,0.13116,0.072102,0.183,0.14268,-0.29045,0.21372,-0.26368,-0.060807,0.34379,0.050282,-0.23987,0.17438,0.0078732,0.071959,-0.070355,-0.058255,0.28139,-0.3363,0.29098,-0.55105,-0.27317,0.068099,0.22653,0.052876,-0.13714,0.12785,0.094042,0.21546,-0.2031,0.279,0.24042,-0.23659,-0.041357,-0.14675,0.070082,0.14442,-0.41209,-0.4039,0.2851,0.24811,0.010316,-0.17841,0.33069,-0.086752,-0.011874,-0.26616,-0.018226,-0.15548,-0.043201,0.072156,-0.010684,-0.32595,0.23098,0.068587,-0.032462,-0.18461,-0.15189,-0.32707,0.23978,-0.30162,0.27248,-0.1073,0.25265,-0.1337,-0.14698,-0.28192,-0.32488,0.070433,-0.1638,-0.42329,-0.15302,-0.16006,-0.12429,-0.11399,0.14734,0.27119,0.27679,0.1815,-0.11339,0.11907,-0.020344
-0.091561,-0.11296,0.083025,0.11918,-0.18893,-0.15427,0.0098912,0.19395,1.0428,0.13482,-0.14844,0.021275,-0.22229,-0.17712,0.18949,-0.045076,-0.071661,0.28239,-0.30445,-0.29352,0.057825,-0.13199,-0.064625,0.13802,0.05272,-0.48779,0.29104,0.43708,-0.0045932,-0.13657,0.11187,0.20763,0.32347,0.083008,-0.10341,0.1948,0.042686,0.18645,-0.48323,0.083915,0.3315,0.012682,-0.012742,0.10701,0.22063,-0.096813,0.39346,0.18708,-0.21907,0.032308,-0.051931,0.24227,-0.37919,0.13795,-0.15695,-0.24247,-0.094506,0.23276,-0.02906,0.22102,-0.16039,0.28792,0.0050157,0.13417,0.071787,0.092641,-0.23548,0.21329,-0.22085,0.23119,0.19453,-0.095694,-0.24378,-0.027516,0.18984,0.12516,-0.29627,-0.045399,-0.0093248,-0.21644,0.0080482,-0.36661,0.21672,0.20658,-0.33425,0.019129,0.38038,-0.49902,-0.50281,0.15716,-0.12382,-0.65248,-0.31321,-0.28754,-0.12711,-0.24282,-0.38268,0.10337,0.28119,-0.15004
0.29574,-0.21222,0.33404,-0.079917,-0.0064581,0.010206,0.39305,-0.15594,0.57226,0.2664,0.19132,0.064124,-0.33045,0.11945,0.12304,-0.030305,-0.13559,-0.096221,0.16577,-0.18263,-0.19716,-0.27553,0.19311,0.16269,-0.23173,-0.065418,0.40198,0.2821,-0.0072457,-0.27928,0.22235,0.185,-0.22451,-0.30292,0.17439,0.25226,-0.28218,0.1013,-0.089975,0.082544,-0.25872,0.2622,-0.1244,-0.40163,0.0099767,0.14279,0.081068,0.040821,-0.23896,-0.03013,-0.19775,0.13226,0.14016,0.27861,-0.21246,-0.20891,-0.063076,0.22884,-0.13581,0.15749,0.21279,-0.16419,-0.0082148,-0.040166,0.18478,0.25581,-0.0020545,0.25616,0.26579,-0.25016,0.28333,0.16412,0.17691,0.15093,-0.16504,-0.039405,0.050475,0.17018,-0.037782,-0.020861,0.023092,-0.15707,0.10632,0.29268,0.0035898,-0.24621,-0.1915,0.11483,0.098553,0.067856,5.5053e-05,-0.20624,-0.22802,-0.30208,0.12007,0.11005,-0.01855,-0.25935,0.27382,0.052733
-0.29373,0.088248,-0.0033271,-0.17378,-0.149,-0.071294,-0.12093,-0.28944,0.18353,0.080484,0.15367,-0.0011013,-0.14331,-0.23565,0.10609,-0.09477,0.12606,-0.12949,-0.24182,0.018946,-0.23962,0.050461,0.00080313,-0.32316,0.0087342,-0.066142,-0.18896,-0.2105,0.03048,0.18595,-0.077116,0.24872,0.20512,0.033415,0.072854,0.19937,0.09356,0.18901,0.30042,-0.010467,0.0088028,-0.2555,-0.21251,0.21397,0.070517,0.088132,-0.27697,0.42635,-0.19537,0.15902,-0.16699,-0.28801,0.16866,-0.33153,0.23793,-0.23881,-0.063319,0.21735,-0.17943,0.28917,0.23785,-0.17781,-0.21581,0.048239,-0.22409,0.13716,0.097555,0.12275,-0.29149,-0.19588,0.30176,0.18967,-0.10798,-0.10327,0.22681,0.019323,0.14165,0.041803,0.24911,-0.021676,-0.20976,-0.090982,0.23479,-0.19314,-0.022513,0.097637,0.017657,0.22064,0.17104,0.0076932,-0.11817,0.17469,-0.15221,-0.28908,-0.20317,0.19108,0.15331,-0.25388,0.11805,0.28309
0.43307,-0.29524,-0.24726,0.38699,0.1164,0.22255,0.010483,-0.20911,0.40421,0.10812,-0.076127,0.13656,0.031932,0.29273,0.42266,0.32057,0.075163,0.17083,-0.33268,-0.34759,0.30447,-0.22642,0.27859,-0.30657,0.018221,-0.52567,0.51136,0.1224,0.2692,0.014253,0.16464,0.083548,0.37641,-0.37991,0.20926,-0.25025,-0.072466,0.22836,0.080801,0.31804,-0.1425,0.29668,0.19789,0.2654,0.080771,0.21586,-0.26619,0.70474,0.065534,0.31958,-0.088913,0.23579,-0.029394,0.20851,0.25108,-0.20992,-0.40218,-0.11675,-0.18016,-0.072901,-0.13102,0.32752,-0.11027,-0.13103,-0.076301,0.13647,-0.0026434,0.71488,-0.16022,-0.013802,0.20673,-0.27536,-0.048604,-0.12838,-0.0661,-0.24676,-0.098624,-0.24992,0.19548,0.19586,-0.15241,-0.23437,0.029703,-0.28797,-0.10695,0.67194,0.43317,-0.32084,-0.05756,0.11966,0.020347,-0.27607,-0.24019,-0.052854,0.30018,-0.064104,0.060674,0.20888,-0.047308,0.21707
-0.23396,-0.050692,-0.22469,-0.087481,0.2062,-0.081612,-0.0038202,0.058446,-0.95803,-0.34734,0.067286,-0.26306,0.023871,-0.076311,-0.22776,0.086414,0.1861,0.21941,0.17642,-0.065871,-0.085057,0.18927,-0.26769,-0.21899,-0.35476,0.2873,-0.50429,-0.0738,-0.18658,-0.18419,0.15827,-0.30594,-0.15535,-0.0040971,0.0096322,-0.1609,0.26536,-0.0096125,0.44391,0.0025913,-0.23768,-0.13346,0.12992,-0.0191,-0.14482,-0.099554,0.012405,-0.19316,0.20767,-0.10265,0.33803,-0.11733,0.14829,-0.35029,0.091924,0.45985,0.22534,0.074974,-0.039562,-0.16747,-0.089606,0.040978,0.35999,-0.14271,-0.25565,0.28856,0.0032352,-0.46971,0.0023224,-0.1121,-0.15859,0.22621,0.11985,0.21572,-0.21886,0.29045,0.39909,-0.062851,-0.013944,0.22053,-0.16305,0.038241,0.15044,0.045704,0.051553,-0.046135,-0.2365,0.11504,0.12148,0.23757,-0.26662,0.20325,0.053802,-0.26552,-0.015846,0.27593,0.12335,0.13358,0.15257,0.28786
-0.45664,-0.15943,0.10374,-0.1508,0.16004,-0.024511,-0.33292,-0.1601,-0.37109,-0.14357,-0.089585,-0.29187,-0.062749,-0.055236,-0.5151,-0.23014,-0.04625,0.18869,0.35126,-0.011211,-0.41198,0.32261,-0.1828,0.31478,-0.18679,0.39581,-0.42815,-0.29713,-0.18831,0.088355,0.090073,0.26516,-0.21728,0.059412,0.053256,-0.31383,0.28868,-0.24882,0.35717,-0.086099,-0.20656,-0.23339,-0.1342,0.45286,-0.22523,-0.28841,-0.36245,0.30008,-0.18019,-0.34273,0.28965,-0.36094,0.043509,0.0017957,-0.24386,0.056914,0.26472,-0.15143,0.33082,0.24566,-0.14187,-0.28056,-0.012798,-0.16569,-0.18806,-0.23924,0.28322,-0.30944,0.047726,0.29152,0.067522,0.10435,-0.22776,0.007374,0.30904,0.050609,0.31775,-0.082585,0.31288,-0.037908,0.31281,-0.16339,-0.28135,-0.14035,0.057271,0.27789,-0.42966,0.29906,-0.033486,-0.21718,0.17595,0.24363,-0.19672,0.24792,-0.138,0.18553,0.32259,-0.077221,0.19436,0.016524
0.28123,-0.27789,-0.3555,0.29074,0.30177,0.13916,0.041989,-0.20866,0.96629,0.26243,-0.04298,0.16078,-0.076994,0.20463,0.49102,0.34141,-0.31082,0.01398,-0.027079,0.020843,0.051196,0.22145,0.37917,-0.38665,-0.11956,-0.22978,0.4452,0.37213,0.32262,-0.18585,-0.28682,0.27522,0.064504,-0.32286,0.32386,0.16383,-0.068825,0.31867,-0.50315,0.040946,-0.16005,-0.24553,-0.23403,0.2725,-0.41404,0.10466,0.16417,0.0057473,-0.29872,0.20729,-0.080643,0.098161,0.0045132,-0.082078,0.18523,-0.43606,-0.46938,0.20723,-0.26538,0.26244,-0.17622,0.053912,0.13615,-0.11198,0.056617,0.27199,-0.1822,0.28496,-0.15535,0.217,-0.041544,-0.23174,0.10438,0.055522,0.15993,-0.24232,0.069122,-0.14728,0.068321,0.01564,0.20144,0.20293,-0.088794,-0.21575,0.052755,-0.011954,0.13515,-0.53563,-0.11594,-0.14399,-0.29008,-0.055056,-0.1664,0.20194,-0.0022532,-0.015121,-0.022329,0.30814,-0.16678,-0.0048105
-0.018186,-0.084021,-0.10346,-0.35417,0.17289,-0.095105,0.0044684,0.058,-0.18322,0.095686,-0.15229,0.082579,0.13911,0.20936,0.11117,0.21663,0.29951,-0.076628,0.24499,-0.099447,0.1339,-0.17294,0.0035839,-0.015716,-0.233,-0.014458,-0.1469,-0.23353,-0.049068,-0.2077,0.32952,-0.23645,-0.085228,0.070265,-0.2949,-0.1774,0.25947,0.072892,0.15466,-0.2767,-0.10542,-0.088801,-0.2024,-0.1109,0.27345,0.20045,-0.038715,-0.37407,-0.1562,-0.32066,-0.13327,-0.1656,0.35039,0.21132,0.29426,0.28058,0.54043,0.16597,0.24683,0.22786,-0.26688,-0.2408,-0.22337,0.15134,0.30451,0.20086,0.17666,-0.67571,0.27619,0.30253,0.25202,0.30475,-0.1192,0.26457,0.2771,0.052652,0.18661,-0.0013558,-0.22498,0.0057337,0.15124,-0.032173,0.2007,0.33645,0.049861,-0.40678,0.074044,0.32293,0.43352,0.15745,0.35826,-0.057433,-0.19043,0.13967,-0.27828,-0.071564,-0.16767,0.043738,-0.068806,0.04187
0.39814,-0.028267,0.11943,0.0010186,-0.10943,-0.19859,0.56891,-0.093138,0.60926,-0.30739,-0.046724,0.032893,0.075795,0.31705,0.33869,0.14289,-0.023986,0.28728,-0.20421,-0.1689,0.2885,0.2482,-0.17945,0.11384,0.034145,0.22829,0.33582,0.48299,0.15116,-0.00058778,0.16589,0.094325,-0.17276,0.042627,0.19403,0.017768,-0.28441,0.19784,-0.5754,0.21587,-0.038203,-0.0092447,0.074076,-0.51137,0.15394,-0.094762,0.045012,-0.50726,0.23852,0.0073655,-0.13916,0.33304,0.14425,0.093087,-0.28076,-0.05637,0.081898,0.19043,-0.12298,-0.28297,0.18116,0.24318,-0.24084,0.40658,-0.042992,0.33227,-0.14043,0.32726,-0.068442,-0.20712,-0.096349,0.33492,-0.22263,-0.13829,0.032249,-0.15426,-0.21602,0.029189,-0.1358,0.3438,-0.2245,-0.27081,-0.065032,0.07381,0.016566,-0.43873,0.21251,-0.0098186,-0.020105,-0.12078,0.03517,-0.13302,0.22048,-0.24108,-0.10116,-0.31858,0.11169,-0.078073,0.065229,0.20724
-0.14938,0.025697,-0.20384,-0.4069,0.14033,-0.049593,-0.14203,-0.099556,-0.80709,0.14223,-0.28575,-0.20943,0.099716,0.032224,-0.33862,0.039545,0.25733,-0.15548,-0.0048355,-0.090689,-0.071319,-0.20443,-0.038686,0.051477,-0.00065356,0.44303,-0.53373,0.16489,-0.21514,-0.098441,-0.067172,-0.29362,0.17723,0.24545,-0.31698,-0.30249,0.26888,0.11427,0.10705,-0.17808,0.05148,-0.074285,0.34239,0.1354,-0.24612,-0.062709,-0.10153,0.16792,0.12701,0.11241,0.020343,-0.26195,0.34533,0.018758,0.31081,0.52787,0.0062159,0.027717,0.27078,-0.15153,0.044151,0.18617,0.20654,0.10693,0.31682,-0.20375,0.070794,-0.3304,-0.25927,0.20468,0.28106,-0.082585,0.23335,-0.057353,0.33346,0.24985,0.30482,0.24671,0.0075347,-0.2892,0.32292,0.35067,-0.25497,0.23555,0.033523,-0.38346,-0.0056283,0.099112,0.15646,0.10272,-0.015142,0.4397,0.37751,0.085207,-0.080539,-0.078867,0.18061,0.13172,-0.18528,0.21446
-0.14925,0.26693,-0.076475,-0.45167,-0.18129,-0.12627,-0.58845,-0.024993,-0.69064,0.21926,-0.24283,-0.016008,0.3731,-0.43998,-0.20488,0.29374,0.23548,-0.13419,0.21476,0.2169,-0.070771,-0.27163,-0.2715,0.10294,0.13455,0.43221,-0.63443,-0.38067,-0.3493,0.047808,-0.28878,0.21579,-0.10294,0.3731,0.059394,0.1417,-0.054672,-0.16138,0.50958,-0.20993,-0.12525,-0.34885,-0.12792,0.22337,-0.064665,0.2661,-0.23532,-0.054592,-0.1361,0.059068,0.053413,0.080192,0.033928,-0.33642,0.24298,0.4182,0.21381,-0.2434,-0.012716,0.21603,0.044325,0.053363,-0.066551,0.13507,0.036138,-0.17873,0.015208,-0.41628,0.16033,0.089012,0.10079,-0.030686,-0.086217,0.11642,0.13508,0.24671,-0.21008,-0.28431,0.3794,-0.29367,0.38568,-0.10159,-0.21025,-0.095354,0.018356,0.25685,-0.14049,-0.11081,0.39725,0.035763,0.28177,0.39791,0.11758,-0.15002,-0.059104,-0.25212,-0.020936,0.12691,-0.066493,-0.21705
-0.094698,-0.11398,-0.1672,0.27621,-0.19039,-0.081178,0.11379,0.0132,0.46938,0.094844,-0.10298,-0.059901,0.19505,-0.086285,0.11348,-0.2682,0.2185,-0.041689,-0.3222,0.3147,-0.16983,0.11977,-0.27265,-0.071959,-0.21594,-0.040326,0.31336,0.049525,0.15716,-0.21812,-0.013397,0.028499,0.11309,-0.062087,0.23604,0.080597,-0.024337,-0.10093,-0.17636,-0.016331,0.015665,-0.085176,0.077062,-0.34466,-0.21007,-0.034906,0.31497,-0.094962,0.23543,0.12337,-0.41647,0.24657,0.20315,-0.20126,-0.15794,0.18798,-0.083291,0.25465,0.3219,-0.11053,0.035715,-0.2774,-0.059045,-0.092518,0.17217,0.050367,-0.28457,-0.15535,-0.19043,-0.16332,0.15968,0.25106,0.19456,-0.22344,-0.067517,0.066148,0.074234,0.14387,0.12541,0.21695,-0.30066,-0.28042,0.038731,-0.13429,-0.027814,-0.29079,0.067866,-0.10636,0.19604,0.24132,-0.10627,0.13691,0.16871,0.077529,0.20772,0.18695,-0.2874,0.0087734,-0.16308,-0.14893
-0.072935,-0.13417,0.15176,-0.37384,-0.17066,0.11508,-0.23796,-0.31168,-0.11205,-0.24717,-0.16799,-0.078905,0.051152,-0.35328,0.11914,0.27072,-0.074801,-0.02876,-0.041399,-0.11151,0.27565,-0.23256,-0.13751,-0.072342,-0.19215,0.017205,-0.27251,-0.33124,-0.0013361,-0.19412,0.031154,-0.094427,-0.050215,0.21166,-0.2018,-0.14912,0.02483,-0.16174,0.38093,-0.16199,0.12867,-0.16795,0.17107,0.10429,-0.27889,0.25841,0.02551,0.14954,0.018954,-0.050519,0.3949,0.24254,-0.1504,-0.027308,-0.052819,-0.34227,-0.33397,-0.044393,-0.28018,0.23327,-0.12179,0.27416,0.036088,-0.27115,0.10654,0.18678,0.013124,0.30246,-0.091856,0.1865,0.14253,-0.31218,0.31699,-0.14285,-0.10612,-0.11321,-0.050111,-0.16416,0.074996,0.067616,0.19539,-0.24515,-0.25943,0.094954,-0.24312,0.58864,0.022848,0.0084335,0.27473,0.065811,0.13871,-0.24778,-0.14913,-0.023443,-0.079073,-0.2387,0.22191,-0.2307,0.026323,-0.09969
0.086094,-0.055061,-0.082869,-0.2276,0.33411,-0.19317,0.42503,-0.26855,0.99402,0.16027,0.13985,-0.32583,-0.075646,0.0966,0.5311,0.22769,-0.10519,0.054746,0.19157,-0.48532,-0.15508,-0.18836,0.046711,-0.14955,-0.047029,-0.25891,0.84039,0.11457,0.22289,-0.11642,0.011935,-0.18895,0.36344,-0.36108,0.34999,0.35876,-0.01321,0.3495,-0.53757,-0.10731,-0.10339,0.2831,0.12417,0.54656,-0.42188,0.058057,0.384,0.61023,-0.23681,-0.020979,0.08995,-0.016554,-0.33111,-0.061841,-0.23995,-0.61875,-0.76678,-0.16627,-0.015695,-0.25178,-0.12227,0.17181,0.084768,-0.34948,-0.1328,0.0078737,0.083532,0.62274,-0.1527,-0.043754,0.23489,0.25123,-0.12634,0.12935,0.16533,0.2746,-0.45918,0.17365,-0.019684,0.15349,0.085498,-0.12276,0.23603,-0.34004,-0.35635,0.51274,0.55293,-0.6012,-0.23257,0.21658,-0.036182,-0.70248,-0.40281,0.094259,0.38647,-0.1805,-0.33267,-0.21712,0.20276,0.12531
0.090569,0.18906,0.17505,0.2633,-0.078502,0.16672,0.072749,-0.16757,0.089837,0.056964,-0.0151,0.43743,0.051261,0.34664,0.23207,0.044745,0.079338,-0.20736,-0.12923,-0.050485,-0.20366,0.099513,0.0065867,0.41074,-0.12854,-0.014263,0.15865,0.43251,-0.19454,-0.24039,-0.11744,-0.29611,0.11998,0.12615,0.25943,-0.22471,-0.072099,-0.087722,-0.54756,-0.0054136,0.15036,0.16113,0.011096,-0.30537,0.12435,-0.22632,0.32257,-0.62539,0.18732,-0.096339,0.01404,-0.090917,0.32946,0.15281,0.28027,-0.10261,0.16684,-0.26642,-0.24319,0.27731,0.16289,-0.25356,-0.16327,0.16178,-0.25784,0.17713,-0.11264,0.074629,-0.29806,-0.24336,0.18179,-0.11043,0.22682,-0.24631,0.21959,0.14279,-0.17222,0.11251,-0.29295,0.19852,-0.31753,0.089236,0.09501,0.11753,-0.23637,-0.75169,0.048259,0.051104,-0.018483,0.16178,0.15209,-0.029844,0.23998,-0.24395,-0.38807,0.25382,-0.17576,-0.19196,0.14052,0.11209
-0.066777,0.35659,0.11543,-0.022414,-0.20807,0.17445,-0.20856,0.18001,-1.4125,-0.42803,-0.25158,0.28832,0.26994,-0.062756,-0.59583,0.06263,0.136,-0.062834,0.10116,0.5045,-0.21617,-0.084935,-0.38396,0.023443,-0.28234,0.6521,-0.76867,-0.20715,-0.42277,0.23058,0.19187,0.22682,0.1462,0.19781,-0.15734,-0.3669,0.064835,-0.15627,0.38983,0.18408,-0.3286,-0.23233,0.082626,-0.053749,0.36348,0.030638,-0.26284,-0.17608,0.09542,-0.18652,0.34333,-0.4844,0.11868,-0.21752,-0.17359,0.37173,0.70817,-0.02654,-0.033966,-0.12509,-0.27989,-0.22474,0.17181,0.24332,0.14728,-0.25603,-0.14281,-0.79982,0.055301,0.054994,0.039742,0.16049,0.10458,0.17507,0.33055,-0.16574,0.2442,-0.20075,0.22347,-0.13492,0.12415,-0.10081,-0.032938,0.22582,0.16717,-0.41162,-0.77887,0.72891,0.0071778,-0.153,-0.049724,0.44157,0.11315,-0.14132,0.13003,-0.10843,0.22911,0.099242,-0.2973,-0.087728
0.35026,-0.1622,0.081489,0.23853,0.31298,-0.13872,0.10329,-0.24526,0.88142,0.016669,-0.071514,-0.057515,-0.23226,0.12895,0.45195,0.1335,-0.14945,0.29463,-0.094785,-0.50766,0.2414,-0.0037734,0.30233,-0.2685,0.18095,-0.1749,0.57476,0.29016,0.25995,0.13233,0.14705,-0.19705,0.34214,-0.16464,-0.096316,0.13081,-0.26445,-0.2364,-0.38904,0.20172,0.0086888,-0.058556,0.057622,0.14035,-0.44938,-0.14255,-0.067451,0.65734,-0.26238,0.17853,0.010789,0.058783,-0.22994,0.33013,0.0070075,-0.56959,-0.17993,-0.1711,-0.078918,-0.29475,-0.12471,0.23448,0.070106,-0.45086,-0.063869,0.03808,0.071084,0.29945,-0.13806,-0.21534,0.11931,0.22931,-0.29192,-0.24396,-0.21764,-0.17818,0.10634,-0.1407,-0.37525,-0.2766,0.057021,-0.10323,0.15353,0.1478,-0.099459,0.49981,0.52651,-0.49815,0.1559,0.16949,0.20276,-0.3287,-0.031395,0.12982,0.15617,0.043142,-0.19027,0.13019,0.13798,-0.095107
0.42548,-0.13795,0.12409,0.49591,-0.17207,0.15505,0.46498,0.061315,0.0023603,-0.14663,-0.1472,0.16586,-0.14905,-0.1243,0.2857,-0.25248,-0.24852,-0.20321,0.15362,-0.20892,-0.037381,0.0080212,0.048915,0.065769,0.24498,0.12043,0.10307,0.46286,-0.097668,-0.16534,0.11697,0.079482,-0.16909,-0.079839,-0.21291,0.30604,-0.31284,0.25702,-0.50389,-0.24801,0.20147,0.31688,-0.047427,-0.47132,0.10114,0.17138,0.17418,-0.5671,0.088789,-0.00079846,-0.37602,0.25809,-0.21895,0.1705,-0.095335,0.30824,-0.074653,-0.21448,-0.17878,0.048972,0.31831,-0.17184,-0.22918,0.096415,-0.24986,0.0054339,-0.06367,0.23886,-0.3113,-0.1993,0.26513,0.050761,-0.11166,-0.12349,-0.24596,0.13935,0.094344,0.26059,-0.010702,0.32818,-0.38384,0.013373,-0.05061,0.23289,-0.017405,-0.43324,-0.13046,-0.18222,-0.23541,-0.15744,0.022125,-0.020608,-0.1063,-0.40082,-0.023985,0.23587,0.033655,0.21646,0.11412,-0.1059
-0.11315,0.11561,0.25622,-0.2216,0.17878,-0.045921,0.17383,-0.15202,-0.75208,-0.28527,0.15839,0.26729,0.10114,0.16391,0.11119,-0.02091,-0.27576,-0.33112,-0.063572,0.05416,0.021441,-0.0030731,-0.2471,0.14252,-0.20113,0.412,-0.21295,0.32123,-0.23112,0.055386,0.18462,-0.12272,0.054915,-0.097475,0.15341,-0.26375,-0.15451,-0.0024894,-0.16116,-0.21482,0.035949,0.26452,0.11426,-0.41871,0.41963,0.028134,-0.23306,-0.66119,0.33849,0.022615,-0.17035,0.11894,-0.04323,-0.060386,0.056072,0.37244,0.39586,-0.10066,0.14725,0.2564,-0.21012,-0.32513,-0.0026362,0.45431,-0.24593,-0.13383,-0.088354,-0.69912,0.070596,-0.020413,-0.12697,0.039125,-0.28039,-0.008824,0.26688,0.046814,0.33446,0.15012,0.31192,-0.26492,0.2586,0.25345,-0.03964,-0.11081,-0.18066,-0.5905,-0.59905,0.41341,-0.14937,0.22204,-0.21437,0.087541,-0.078881,0.12869,-0.15864,-0.30467,0.34894,0.064956,-0.2742,-0.013471
0.25626,0.034319,0.35059,-0.10555,-0.085823,0.072772,0.32238,0.14998,-0.26145,-0.11569,0.22223,0.34236,0.22699,-0.063145,-0.34167,-0.16407,-0.20118,-0.20281,0.20371,0.15418,-0.12679,0.019594,-0.085826,0.0058789,-0.044571,0.49543,-0.073622,0.42355,-0.44647,-0.12683,-0.085196,-0.0046197,-0.27866,0.27373,0.033743,-0.083652,-0.32743,-0.18211,-0.093991,-0.1483,0.071263,0.1769,-0.063062,-0.61483,0.1546,-0.22592,0.3016,-0.76944,0.268,-0.062175,-0.42941,-0.28562,0.046779,-0.091376,0.015674,0.09266,0.4332,0.27955,0.059319,0.2099,0.14966,-0.24696,0.23576,0.27224,0.16232,0.3214,-0.29704,-0.12946,0.033825,-0.022269,0.26112,-0.033219,0.23012,-0.16176,0.054819,-0.25257,0.22601,0.20762,-0.15311,0.32497,-0.27748,-0.12571,-0.14908,0.24519,0.25746,-0.69711,0.0229,0.074384,-0.33715,0.059814,0.095964,0.39992,0.14536,0.053269,-0.12408,-0.23317,-0.14891,0.16245,0.18001,0.2284
-0.045086,-0.17633,-0.32277,0.045846,-0.16922,-0.10389,0.079562,0.040889,-0.0055117,0.3107,0.22834,-0.3702,-0.15019,0.16412,0.14954,0.15378,-0.10848,0.053763,-0.18059,0.0011151,0.2247,0.044434,0.16957,-0.12764,-0.088741,0.17151,0.14487,-0.1475,-0.14662,0.068916,-0.025574,0.23072,0.3075,-0.26636,0.046754,-0.13773,-0.023515,0.25829,-0.089962,0.23375,0.13395,0.19243,-0.15357,0.63393,0.17136,-0.033253,-0.015312,0.63899,0.13887,0.24799,0.032645,0.27639,0.18838,-0.1814,-0.22141,0.057875,-0.04744,-0.078726,0.14495,0.25023,-0.25062,-0.075089,0.30298,0.049207,-0.19833,0.038462,0.027991,0.33865,-0.15887,-0.16809,-0.10704,0.21128,-0.061443,0.13853,0.053565,0.015417,-0.12063,-0.077502,-0.083291,-0.15084,0.17326,-0.1058,-0.18539,-0.11233,0.059003,0.18691,0.11322,-0.25634,-0.056497,-0.045216,0.11682,0.080214,-0.27186,0.11212,0.080032,-0.17041,-0.30437,0.085296,-0.29867,0.27008
-0.38301,0.18004,-0.1742,0.14183,-0.092652,0.16495,-0.1598,0.19022,0.73603,-0.18119,-0.17781,-0.34399,0.23834,0.14818,0.24652,-0.032328,-0.2884,0.056907,-0.021967,-0.33345,0.07558,-0.096144,0.22905,-0.16592,-0.043894,-0.56993,-0.0067966,-0.090864,-0.055869,-0.15802,0.30148,0.22182,0.17118,0.092858,-0.050522,-0.19495,-0.0068963,0.053967,-0.18756,-0.15938,0.10234,-0.27086,0.090894,0.2372,-0.31785,0.27398,0.1482,0.67832,-0.1177,0.25367,0.2348,-0.15342,-0.1128,0.19672,0.039175,-0.08666,-0.60573,0.26753,-0.29602,-0.062065,0.25112,0.14597,0.17713,-0.45294,-0.18464,-0.34121,0.078548,0.42542,0.13155,-0.22243,-0.20255,0.086464,-0.28736,-0.064106,0.10825,0.27523,-0.16043,0.12534,0.30872,-0.22451,0.23063,-0.051011,0.27208,-0.18946,-0.026558,0.77669,0.40431,-0.44964,-0.11564,-0.098853,-0.2284,0.13123,0.17063,0.34045,0.28,0.19604,-0.27558,-0.22981,0.24243,0.033653
0.50309,-0.058294,-0.10401,0.4172,0.11716,0.10861,0.10212,0.2291,0.6985,-0.075923,-0.026911,-0.15784,-0.33332,0.09967,0.1337,-0.083084,0.10631,0.16378,-0.25744,0.0019896,-0.092792,0.20856,0.092499,0.14545,0.24482,-0.19534,0.50644,0.019024,0.24218,0.028925,0.23301,0.15513,-0.071111,0.074295,0.31496,-0.019305,-0.31411,0.09205,-0.11684,-0.036507,0.18345,-0.16431,-0.40654,-0.22544,0.21751,-0.086275,0.16347,-0.33717,-0.13676,0.03359,-0.35403,0.31936,-0.33589,0.11892,-0.076963,-0.25173,-0.38782,0.030414,-0.10529,0.0062005,0.17331,-0.18772,-0.31569,0.014379,-0.013808,0.32054,0.27947,0.54355,-0.13568,0.083938,-0.093924,0.34071,-0.096991,-0.38789,0.22378,0.090552,0.15731,-0.078716,-0.0031804,0.0058213,-0.18071,0.14465,0.055481,0.23104,-0.0026448,-0.085627,-0.052148,-0.1331,-0.57606,-0.22736,-0.29738,-0.31638,-0.040832,-0.12008,-0.032124,-0.28807,-0.057211,-0.13241,0.12815,0.25546
0.25913,0.1093,0.18231,0.069939,0.20245,0.14573,0.10686,0.25671,-0.24128,0.22933,-0.28155,-0.031867,0.022874,0.24942,-0.027746,-0.13623,-0.044846,0.098201,0.20059,-0.046384,0.27472,-0.08839,-0.23727,-0.3112,-0.21811,-0.20776,-0.045119,-0.18204,0.36418,-0.0030982,-0.22887,0.061407,0.098133,-0.1792,-0.23228,-0.10911,0.28706,-0.21507,0.066192,-0.10508,-0.094458,-0.0017397,0.067577,0.066776,0.05042,-0.21602,-0.2463,0.26971,-0.25556,0.2525,-0.25413,0.033706,-0.29077,-0.20227,-0.061848,0.15352,-0.16819,-0.12784,-0.23983,0.089388,-0.21195,0.014413,0.063204,-0.30811,0.076764,-0.073941,0.16893,0.40127,-0.026732,0.2993,0.14382,0.25093,-0.046214,0.18272,0.18909,0.26133,-0.086551,0.08244,-0.1737,0.028715,0.028316,-0.15862,0.046515,-0.056675,-0.11213,0.48067,-0.062175,-0.18753,-0.24389,-0.10511,-0.11546,-0.31791,-0.1754,0.25433,0.12258,0.01227,-0.15638,-0.1006,-0.26438,0.19645
-0.12355,-0.11979,-0.34402,0.28299,0.01593,-0.20761,0.26534,0.14506,0.67666,0.36223,0.15969,0.01067,-0.28038,0.079377,0.18584,-0.033148,-0.076336,0.16075,-0.22671,-0.47918,-0.21253,0.20766,0.31216,-0.24425,0.40153,-0.56453,0.22989,0.42077,0.12294,-0.034243,0.29819,-0.032017,-0.023785,-0.37042,-0.12879,0.27117,0.23651,-0.069196,0.066275,-0.039033,0.27952,0.15126,-0.25981,0.11687,-0.36767,0.011502,-0.1338,0.083423,-0.30863,0.0072328,-0.37079,0.23583,-0.0024885,0.18927,0.068482,-0.1237,-0.49387,-0.11037,-0.06186,-0.22847,-0.094269,-0.16133,-0.15513,-0.17938,-0.19422,-0.13424,0.22717,0.35394,-0.08111,0.095235,0.21951,-0.21155,0.18034,-0.31296,0.22577,0.23098,-0.41509,0.11369,-0.038725,-0.018769,0.19713,-0.16726,0.20128,-0.28895,-0.26442,0.087577,0.60934,-0.14716,-0.19464,-0.11069,-0.26048,-0.36521,-0.12039,0.25877,0.13786,0.16049,-0.35209,-0.10081,-0.069496,-0.14688
-0.13734,0.1393,0.001335,0.039363,-0.25427,-0.19795,-0.027705,-0.31043,-0.30581,0.21365,-0.056776,-0.17663,0.064456,-0.19983,0.01393,-0.013066,-0.24604,0.14048,-0.11736,-0.28125,-0.27488,-0.022312,0.23116,-0.2485,0.28965,-0.13429,0.25454,0.064956,0.2945,0.19455,0.070381,0.23808,0.10414,0.01238,0.22453,0.17579,0.32192,-0.0062054,0.16967,-0.22824,0.29251,-0.19924,0.067994,0.22218,-0.33534,0.25872,0.19245,0.017215,-0.025402,0.24332,0.18025,0.14555,0.24742,0.10791,-0.23816,-0.015478,-0.051007,-0.20513,-0.021677,0.21479,-0.0010459,0.08425,0.081569,-0.057069,-0.0032658,0.15516,-0.018085,0.028505,0.081273,-0.14312,0.0019465,-0.085403,0.032636,-0.12497,0.053261,0.045817,-0.28905,0.27784,-0.096518,0.0090814,0.33653,0.11416,0.16546,-0.13112,0.10394,0.53436,0.21771,-0.0355,0.21886,0.15755,0.1252,-0.025414,0.11347,-0.13902,0.061943,0.17862,-0.0135,0.25642,-0.2229,-0.098372
0.46166,0.026547,-0.1659,0.10024,0.40512,0.011019,0.35049,-0.12265,0.712,-0.17986,0.072796,-0.22725,-0.39644,-0.11311,0.13689,0.041936,0.16345,0.030633,-0.29206,-0.14167,0.18597,-0.18185,0.34986,-0.024984,0.30591,-0.4442,0.62751,0.046068,0.17489,-0.25442,-0.26703,0.19249,0.10427,0.049951,-0.078758,0.14004,-0.26523,0.031499,-0.10921,0.19161,-0.27547,-0.01611,-0.25038,0.23643,0.15685,0.17152,-0.13184,0.41907,-0.35326,-0.20105,-0.2679,0.42837,0.070753,0.12874,-0.20598,-0.5338,-0.78072,0.093948,0.13419,-0.08415,0.13324,0.09735,0.066137,0.093764,0.065357,0.29731,0.059958,0.60919,0.17317,0.18586,-0.13265,0.025624,-0.31854,-0.17655,-0.15744,0.094921,0.0025334,-0.0041956,-0.3581,0.068206,-0.39729,-0.044801,0.27115,-0.3535,0.027191,0.44212,0.62513,-0.16284,-0.4753,0.30525,0.050818,-0.091332,0.031216,-0.13408,0.027884,-0.10228,-0.20237,-0.24215,-0.1484,-0.21435
-0.36157,-0.032926,-0.025334,-0.18649,-0.10241,0.14458,-0.14661,-0.19221,-0.53847,-0.40252,0.28697,0.20706,0.0060143,-0.34475,-0.51252,-0.21197,0.28754,-0.18904,0.082773,0.25434,-0.19169,0.14671,-0.26535,0.26087,-0.40965,0.60555,-0.25168,-0.18856,-0.45147,0.11255,-0.017101,-0.30984,0.075753,0.26689,-0.30044,-0.032001,-0.18609,0.18367,0.089773,-0.1918,-0.0052911,0.20107,0.32621,-0.56065,-0.024326,-0.20283,-0.35679,-0.61348,0.15926,-0.11988,-0.16523,-0.067222,-0.12741,-0.072865,-0.070059,0.5449,0.75613,-0.23758,0.090515,0.21204,-0.1448,-0.012084,0.29172,0.11413,-0.24516,-0.12998,0.062182,-0.69053,0.055631,-0.077441,0.21155,-0.26717,0.23003,0.078189,-0.0062563,0.23578,0.39288,-0.032189,0.32741,0.066834,-0.041748,0.26895,0.16104,-0.1364,0.1842,-0.5906,-0.27613,0.47342,0.11481,-0.25673,0.33971,0.42684,0.15272,-0.20845,0.015007,-0.20485,0.2925,0.09799,0.26848,0.29333
0.18589,-0.35515,-0.024415,0.41116,0.33024,-0.34907,0.13863,0.10839,1.5165,0.39804,-0.082383,-0.045646,-0.047501,0.046579,0.7059,0.2823,0.15962,-0.16472,-0.30809,0.031483,-0.19347,-0.27318,0.11782,-0.32505,0.40518,-0.6804,0.73521,0.24766,0.099389,-0.29208,-0.12136,-0.22963,0.11871,-0.34285,0.27521,-0.060134,-0.26171,-0.11781,-0.15931,0.1926,0.18661,0.3536,-0.20728,0.12903,-0.24248,0.16092,0.24319,-0.032582,0.1183,0.10262,-0.2853,0.068762,-0.28169,0.17996,-0.17895,-0.67455,-0.75381,-0.17622,0.11865,-0.22631,0.14657,0.27774,-0.36488,0.058945,-0.040185,0.23612,-0.16686,0.89749,0.069053,0.099971,-0.24674,0.17856,0.17932,-0.29108,-0.19903,0.091157,0.024541,-0.24811,-0.26925,0.29523,0.14084,-0.062716,0.26065,-0.31162,-0.050231,0.37937,0.62949,-0.28464,-0.49665,0.29567,-0.088608,-0.81502,-0.43724,0.18327,0.0025162,0.0058706,-0.071051,0.021951,0.33141,-0.069371
-0.055805,0.13748,0.0053949,0.023806,0.13776,-0.21388,0.2604,0.058576,-0.74857,-0.14942,0.11886,0.17808,-0.33553,0.25801,-0.25775,-0.37672,-0.21339,-0.041797,-0.0047604,0.56897,0.24458,-0.19714,-0.3206,0.061195,-0.11927,0.14637,-0.37367,0.11408,-0.17769,-0.030721,-0.02865,0.15005,-0.26045,-0.001654,0.093144,-0.1878,0.13751,0.05706,-0.1534,0.21709,0.2573,0.14967,0.21537,-0.77625,0.14408,0.29043,0.0059056,-1.1656,-0.11691,-0.24285,-0.065984,0.17948,-0.15177,0.18565,-0.25395,0.36727,0.59459,-0.15477,0.24948,0.31124,-0.056588,-0.037331,0.071225,0.17706,0.036037,-0.11301,-0.24792,-0.59851,0.021212,0.06138,0.0086743,-0.049077,0.20496,0.17187,-0.24705,-0.17732,0.13071,-0.054722,-0.26988,0.1124,-0.19039,0.26661,0.070235,0.23184,0.24018,-0.89079,-0.12387,0.11896,-0.14509,0.22935,0.067239,0.3879,0.22196,-0.017897,-0.33233,-0.33288,0.44594,-0.0024051,0.19498,0.22845
-0.40296,0.021392,-0.24851,-0.43037,0.074023,0.14917,-0.43705,-0.12776,-0.42111,-0.28661,-0.026543,0.093762,0.20878,-0.18015,-0.41016,-0.037761,-0.1836,0.025632,0.3246,0.20726,-0.20344,0.25466,0.10193,-0.057833,-0.13544,-0.13217,-0.10225,-0.33164,-0.097636,-0.044399,-0.13067,0.039617,-0.039567,-0.074883,-0.082123,-0.15051,-0.21951,0.085551,-0.080184,-0.31572,-0.28935,-0.27685,-0.082306,0.13182,0.14523,0.31075,-0.062862,0.036504,-0.039143,0.093681,0.02707,-0.1749,0.12062,-0.026461,0.16247,0.36031,0.37016,-0.1859,-0.25268,0.22867,0.13396,-0.26657,-0.012408,-0.30352,-0.27297,0.022176,-0.1477,-0.020561,-0.19659,-0.26782,0.0752,-0.2431,-0.15668,0.02009,0.19944,-0.20593,-0.11275,0.20363,-0.17235,0.23952,-0.16289,0.01947,-0.22011,0.15315,0.15458,0.11583,-0.35117,0.13404,0.23802,0.025497,-0.12776,0.059992,-0.042663,-0.048649,0.16241,-0.039849,0.076394,-0.039981,0.24731,0.25944
0.044401,0.26272,0.3149,0.14983,0.030647,0.24262,0.46613,0.17035,0.6609,0.19758,-0.039606,0.36858,0.18466,0.17988,-0.072849,0.21588,0.17323,0.20201,0.020923,-0.17898,0.25541,0.051796,-0.054389,-0.10221,-0.25659,0.166,0.21949,0.19413,0.087878,-0.13217,-0.15915,0.090249,0.23095,0.11074,-0.080839,-0.14061,-0.30067,0.21548,-0.54777,0.20154,0.29845,-0.0075862,-0.089426,-0.042795,0.23392,0.15846,0.37728,-0.18275,0.078391,0.058849,-0.068309,-0.19735,-0.18087,0.048111,-0.15068,-0.17653,0.0029111,0.072761,-0.21797,0.18446,0.12268,0.12663,-0.094373,0.30646,-0.036221,0.3,-0.18032,-0.037557,-0.3107,-0.13004,0.20551,0.33522,-0.2748,-0.22194,0.030948,-0.084889,-0.057797,-0.06197,-0.21438,-0.0051271,-0.15692,0.14971,0.26927,0.19122,0.022488,-0.40647,0.12706,0.21793,0.090414,-0.19947,-0.24713,-0.29257,0.24802,-0.079591,-0.2311,0.029631,-0.25225,0.20527,0.14054,0.1711
-0.39914,-0.10261,-0.19744,-0.064485,-0.031362,-0.12964,-0.62708,-0.28504,-0.076526,0.16208,-0.14972,-0.31703,0.04628,-0.29461,-0.068295,0.29169,-0.071306,0.12891,0.20485,0.090353,-0.053232,0.10333,-0.24682,0.0087905,-0.046028,-0.20928,0.027939,0.011101,0.19916,0.19513,0.27437,0.071351,-0.062528,0.14954,-0.22529,-0.22263,-0.0124,0.10077,0.22205,-0.13988,0.0048073,-0.22609,-0.11797,0.39046,-0.32684,-0.13216,-0.32911,0.14139,0.0067984,0.20142,0.27605,-0.11178,-0.034662,-0.38565,0.067302,-0.25707,-0.13254,-0.015696,-0.16518,-0.051043,0.27316,0.18594,-0.036663,0.00084437,-0.088381,-0.33517,-0.12837,0.060251,-0.17973,0.26058,0.11041,-0.24716,0.10674,0.25259,-0.12777,0.17729,0.12239,0.073467,-0.016558,-0.18093,-0.011804,0.3059,-0.039891,-0.041801,-0.23565,0.49398,-0.10159,-0.17663,0.14317,0.11884,-0.20715,0.1347,0.024138,0.090208,-0.014573,-0.22814,-0.059214,-0.017535,0.059276,-0.092903
-0.062183,0.07305,-0.20395,0.19257,-0.040067,-0.15096,0.336,-0.15457,0.351,-0.2101,-0.20446,-0.036165,0.14931,-0.10333,0.068104,-0.17762,0.22367,0.14142,-0.071211,0.037517,-0.030508,-0.27587,0.017139,-0.066802,0.30649,-0.30039,0.07477,-0.20159,-0.16015,0.11748,0.20981,-0.12575,-0.18103,-0.14884,-0.17393,0.26702,-0.26907,0.13218,0.0032849,-0.22877,-0.22409,-0.12943,0.0049505,-0.1469,0.16814,-0.14043,0.19218,-0.20823,-0.29887,0.20882,0.19811,0.03858,-0.14622,0.11662,-0.24372,-0.011375,-0.56621,0.28249,-0.022945,-0.26703,-0.21716,-0.048472,-0.17905,0.066617,-0.12293,0.26015,-0.17765,0.44666,-0.12562,0.083111,-0.20684,-0.30704,-0.28668,-0.22611,-0.036543,-0.30857,0.13257,-0.24734,0.23988,0.019178,0.024678,0.0042511,0.28215,-0.32563,-0.37292,0.23919,0.35622,-0.30607,-0.016337,-0.2392,0.11517,-0.066786,-0.28607,-0.087374,-0.056842,0.11493,-0.15514,0.14288,0.0046731,-0.26508
0.2457,-0.10801,-0.27183,0.4909,-0.19349,-0.10812,0.17824,-0.10177,0.90762,0.24302,0.084406,-0.023753,-0.012566,0.00037673,0.56881,0.091042,0.046541,-0.16061,-0.016639,-0.079934,0.42672,-0.11798,-0.026532,-0.10159,0.18913,-0.14226,0.20772,0.11505,0.5616,0.14507,0.21591,0.14137,0.18754,0.14259,0.099694,0.23076,-0.40871,0.098846,-0.54491,-0.024111,-0.096944,-0.0071787,-0.17301,-0.14014,-0.090556,-0.26739,0.17557,0.13774,0.062007,0.13632,-0.025459,0.28001,-0.048646,0.43918,0.22674,-0.68002,-0.71738,0.011047,-0.28801,0.042048,-0.045302,-0.24046,-0.075734,0.11213,-0.10406,0.12731,0.1791,0.74327,0.14845,-0.14277,0.20981,0.23218,-0.36824,0.26091,0.12497,-0.18664,0.20612,-0.24786,-0.35001,0.21864,-0.1943,-0.10463,0.11012,0.0069342,-0.11444,-0.14639,0.48103,-0.34476,0.0056487,0.038708,-0.30927,-0.25962,0.10906,-0.086671,0.0076407,0.22817,0.023676,-0.037792,0.30935,0.14586
0.31672,-0.2024,0.37359,0.33708,-0.10296,-0.2607,0.76006,0.18313,0.48591,0.11578,-0.28562,0.035092,-0.24854,0.19371,0.10126,-0.050103,-0.17722,-0.12823,-0.3095,0.2181,0.31197,-0.091807,-0.1112,0.3005,0.12817,0.070133,0.25003,0.027783,-0.11452,-0.053514,0.21497,0.23245,-0.057682,0.21826,0.33255,0.25183,0.039184,-0.066221,-0.51012,-0.1594,-0.10795,-0.12157,-0.28382,-0.66091,0.19345,-0.17528,0.34278,-0.59459,-0.047636,0.20067,-0.4911,0.36213,-0.099205,0.55802,-0.18634,0.13852,-0.19359,0.096967,0.094508,0.2718,-0.19916,-0.26384,0.17187,-0.10532,-0.11281,-0.042301,-0.017383,-0.034631,-0.085171,0.016022,0.020381,0.16853,-0.20578,0.032146,-0.03026,-0.30864,0.09771,0.24074,-0.16589,0.16825,-0.16969,0.15588,-0.15777,-0.027924,-0.15525,-0.72151,-0.039519,-0.16615,-0.33158,-0.24202,-0.11887,-0.27833,-0.33322,0.15972,0.14895,-0.29954,-0.24712,-0.20445,0.13351,0.049443
-0.05217,-0.020969,0.23001,-0.02624,-0.26457,-0.079502,0.029516,-0.030006,0.54627,-0.047877,-0.30428,-0.018779,0.092453,0.02826,-0.096866,0.29926,0.19924,-0.18839,0.13489,-0.03097,-0.10443,-0.269,-0.24285,-0.40452,0.11768,-0.041033,-0.11686,0.13527,0.28181,0.014009,0.30262,-0.055537,-0.10148,0.030966,-0.14999,0.19541,0.33019,-0.089609,-0.022175,-0.28476,-0.27871,-0.21075,-0.20147,0.10961,-0.0049601,-0.18377,0.0261,0.0029261,-0.34397,-0.066176,0.16058,-0.21522,0.2144,-0.1176,0.1353,-0.21518,-0.047836,-0.25489,0.047385,-0.033328,-0.027614,-0.14215,-0.001149,-0.0091664,0.065156,-0.38448,-0.27,0.41952,-0.20858,-0.085702,0.1031,-0.21495,0.10371,0.084012,0.26678,0.11694,-0.029377,0.11173,-0.15848,0.076891,0.032209,0.16516,0.25443,0.12235,0.22078,0.19061,0.41853,-0.37018,0.19384,-0.23905,0.35161,-0.30071,-0.15846,-0.13824,0.1933,-0.25329,-0.19466,-0.078385,-0.056146,0.039317
-0.32241,0.074317,-0.20281,-0.27918,0.19338,0.091668,-0.68551,-0.18327,-0.17639,0.28088,-0.03793,0.14823,0.25019,-0.12446,-0.42133,0.21769,0.029237,0.16188,0.30509,0.17328,0.14138,0.012732,0.07686,0.053317,-0.043842,0.077919,-0.27452,-0.12316,-0.16576,-0.11471,-0.2913,-0.097664,-0.071752,0.14708,-0.28707,-0.29021,0.11476,-0.097844,0.4761,0.15401,-0.22269,-0.077874,0.14378,0.23125,-0.36872,0.14608,-0.34191,0.58712,-0.33265,-0.10986,0.10668,0.14827,-0.12053,0.099466,0.2876,0.0045812,0.14469,-0.2938,-0.092706,-0.20278,0.29203,0.25661,0.32743,-0.12756,0.15108,-0.32933,-0.22493,0.021144,0.1882,-0.16555,-0.064847,-0.2748,0.1055,0.011094,0.20948,0.19031,-0.010502,0.084218,-0.2145,-0.32658,0.24969,-0.084592,0.10299,0.19059,-0.21263,0.62937,0.079981,0.15088,-0.030649,-0.25572,0.36414,0.11908,-0.12999,0.27613,0.20586,-0.036493,-0.19609,0.01814,-0.29922,0.11195
0.17232,-0.056189,-0.35928,0.14396,-0.027265,0.021982,-0.25561,-0.059791,-0.33744,-0.1698,-0.10149,-0.37319,-0.11787,-0.33606,-0.0298,0.33442,-0.18712,0.064159,0.19407,-0.3891,-0.11979,-0.044804,0.0064681,0.046483,0.15505,-0.17418,0.16122,0.028944,0.27758,-0.1464,0.23999,-0.17933,-0.21304,0.20096,0.021157,-0.20334,-0.13202,0.059082,0.10737,0.21308,-0.15583,-0.18151,-0.15991,0.43069,-0.14665,-0.026516,-0.23999,0.51168,-0.39342,-0.217,0.3686,-0.2411,-0.26586,-0.032685,0.036996,-0.21023,-0.41063,-0.20809,-0.19219,0.23195,-0.27174,-0.045938,-0.25657,-0.11245,-0.16214,0.1319,0.11581,0.20395,0.14014,-0.26017,-0.11242,0.17375,0.11061,-0.10709,0.21711,0.14273,-0.12276,0.23315,0.25326,0.22816,0.31198,0.24689,0.16093,-0.12054,-0.013841,0.60419,-0.037325,-0.043714,0.16898,-0.22293,0.012285,-0.1412,0.19231,0.27434,-0.042308,-0.15849,-0.23679,0.12836,0.11647,0.072619
0.015252,-0.23061,0.26548,0.067265,-0.3023,0.25557,0.11283,-0.06495,-0.58086,-0.066094,-0.093223,-0.28535,-0.014665,0.12787,0.019214,-0.16866,0.22766,0.12871,0.30105,0.11443,0.28027,-0.16094,0.23841,0.090988,-0.14558,-0.034568,-0.25963,0.011796,0.014468,0.23389,0.22648,0.09453,0.25434,-0.19186,-0.12949,-0.30416,0.34076,-0.0087078,-0.11319,0.17318,0.27356,0.24657,0.23597,-0.15555,0.32322,0.16355,0.016584,0.11631,0.052676,0.12363,0.11738,-0.19841,0.29665,0.19534,-0.27967,-0.037271,0.18021,-0.22638,0.23798,-0.19305,0.0014471,-0.23342,0.061836,0.098979,0.13661,0.006665,-0.22888,0.013391,0.089321,0.28923,-0.26871,-0.27482,0.19014,0.31203,0.14565,0.052426,0.04494,-0.13422,0.31055,0.19436,-0.088605,0.13267,-0.1908,0.32512,-0.124,0.0194,-0.094465,-0.21801,0.017701,-0.11469,-0.18722,0.25245,0.24941,0.28949,-0.10049,-0.26377,-0.01134,-0.28063,-0.0021303,0.14882
0.32236,0.2929,0.027362,0.065227,-0.10379,-0.27729,0.34688,-0.045167,0.018129,0.00062537,-0.14888,0.35425,-0.31439,-0.23846,0.1176,-0.29852,-0.16963,-0.14302,-0.24077,-0.061833,0.24969,-0.15487,-0.031192,0.44037,-0.21658,-0.043835,-0.029654,0.4238,-0.19153,-0.10528,-0.3221,-0.0063731,0.30227,-0.0042623,0.14504,-0.11778,0.042509,-0.077431,-0.14794,-0.10663,0.31599,-0.051857,-0.18573,-0.33694,0.25645,0.27396,-0.012234,-0.47151,0.25053,-0.0954,-0.37051,-0.30918,-0.35031,-0.19775,-0.15863,0.20106,0.55744,-0.019322,-0.013,-0.30587,-0.037388,-0.12139,0.18411,-0.029297,-0.17533,-0.052183,-0.0017875,-0.48113,0.0016619,0.048087,-0.039555,-0.20525,-0.091149,-0.19403,0.17808,-0.13913,0.13251,0.071865,-0.00098934,-0.22065,-0.050047,-0.27641,-0.23229,0.27464,-0.16333,-0.34352,-0.47955,0.24319,-0.33211,0.19854,-0.31632,0.039639,0.25808,-0.0087814,-0.08954,-0.12572,-0.26965,-0.15454,0.017259,0.13687
-0.43228,-0.10264,-0.19672,-0.32169,0.13139,-0.20478,-0.60314,-0.063359,-0.78057,-0.010003,-0.051365,0.23701,0.2314,0.0031871,-0.38006,-0.18953,0.089561,-0.27443,-0.1643,0.31905,-0.11049,-0.12513,0.11184,0.3553,0.14293,0.44251,-0.56189,-0.20887,-0.16735,-0.012194,-0.14214,0.15492,-0.38416,0.35151,-0.39238,-0.24631,0.25454,-0.10314,0.60419,0.19299,-0.045559,-0.13623,0.21695,-0.099931,0.13482,0.24186,-0.2119,-0.31602,-0.18344,-0.27269,0.3198,-0.22153,0.17074,-0.28814,-0.21554,0.26678,0.09269,-0.1034,0.14668,0.24931,0.16553,-0.26582,-0.030071,0.23463,0.018679,-0.31766,0.075193,-0.3582,-0.12633,0.093482,0.24196,-0.32997,-0.17658,0.030781,0.12941,0.27353,0.3039,-0.23689,0.012179,-0.32165,0.25488,0.33133,0.068265,0.12794,0.39501,-0.045972,-0.51522,0.45071,0.52189,0.25856,0.17055,0.3662,-0.012655,0.013833,0.1076,0.2189,0.21787,0.17762,0.1658,-0.086175
0.28942,-0.37397,0.068044,0.52688,0.41939,-0.10466,0.74006,0.27342,1.2333,-0.14764,-0.27151,0.19557,-0.55497,0.37448,0.30451,0.22299,-0.19957,0.086027,-0.27137,-0.44724,0.16212,-0.27113,0.37743,0.029134,-0.037562,-0.75295,0.94048,0.60291,0.65773,-0.064806,0.22426,0.060182,0.16025,-0.14414,0.0026964,0.10902,-0.26725,-0.13142,-0.65623,0.18704,0.12309,0.3656,-0.33074,-0.058768,0.056586,-0.031378,-0.12726,0.40148,-0.37915,0.20474,-0.32405,0.35055,-0.51774,0.45992,0.097244,-0.6965,-0.44849,0.24506,-0.16867,0.23832,0.20812,0.018287,-0.40667,-0.16071,0.013312,-0.011268,-0.15765,0.52594,-0.28618,-0.16383,0.015628,0.098218,-0.16235,-0.088367,-0.022809,0.15765,-0.032323,-0.30781,0.11142,-0.15838,-0.044965,-0.32148,0.38651,0.10485,-0.44978,0.3165,0.50981,-0.78756,-0.67698,-0.028709,-0.60554,-0.40989,-0.31522,0.12562,0.049155,0.059209,-0.19344,0.021984,0.2215,-0.16557
0.017512,0.053062,-0.22718,-0.24113,-0.092322,0.11283,-0.23967,0.31184,0.066497,-0.33817,0.26201,-0.19171,0.073807,-0.059911,0.049495,0.24734,0.25814,-0.27433,0.22283,-0.18453,0.30353,-0.15415,-0.17846,-0.23286,0.066769,-0.026144,-0.29848,-0.23943,-0.15616,0.024218,0.0064066,-0.20119,-0.227,0.2309,0.087283,-0.29056,0.29036,0.18487,-0.017922,-0.27487,0.14702,-0.11591,0.12613,-0.33081,0.024209,0.01493,0.18379,-0.51205,0.11917,0.28568,-0.203,0.16221,0.059019,0.14423,-0.029368,0.23914,0.28142,0.035054,0.1938,0.14487,-0.29535,0.073313,0.075465,0.030952,-0.17478,-0.24184,0.25148,-0.053511,-0.085417,0.22955,0.31945,-0.082114,0.18081,0.2004,-0.29703,0.28239,0.32613,0.23038,0.10129,-0.09279,0.13182,0.028928,-0.087681,0.32758,0.21405,-0.33761,-0.12581,0.2656,-0.020669,0.24625,0.25004,0.10896,0.020766,-0.25853,-0.15199,-0.069408,0.31306,-0.090268,0.28424,-0.15538
-0.38994,-0.21849,-0.40358,-0.27344,0.22646,0.28429,0.0065755,-0.017596,-0.096415,-0.1858,-0.28557,-0.14147,-0.12425,0.020105,0.077725,-0.11045,0.083189,0.19212,0.43663,-0.24042,-0.070584,-0.20417,-0.058349,-0.18392,0.14294,-0.066842,-0.035875,-0.4552,0.30911,0.033141,0.0018921,0.20314,0.19576,-0.30911,-0.16128,-0.1897,0.34316,-0.2785,0.37018,0.081121,0.26573,0.21803,-0.12293,0.63653,-0.26112,-0.13423,-0.21802,0.3417,0.1354,0.016886,0.22557,0.026969,0.32269,0.1775,-0.15057,-0.29142,-0.68537,-0.15977,-0.32938,0.13807,0.12872,0.15164,-0.13648,-0.39975,0.1618,0.067853,0.15413,0.47522,0.30493,-0.024516,0.059973,-0.044772,-0.095419,0.034535,0.075926,0.2324,-0.11374,0.27314,0.024244,-0.27696,0.25666,-0.074452,0.040701,-0.29872,-0.13395,0.51118,0.48935,-0.12506,0.46087,0.063514,-0.060713,-0.10828,-0.022385,0.039726,0.28274,0.031099,-0.033746,-0.054477,-0.010309,0.25874
0.25659,-0.39127,-0.068793,0.021535,0.096221,-0.29749,0.4256,-0.07243,1.2229,0.16177,0.0097788,-0.093681,-0.13631,0.23378,0.15201,0.28718,-0.24742,0.18511,0.13192,-0.45749,0.36734,-0.071667,0.056583,-0.37175,0.011067,-0.81404,0.56962,0.078827,0.56545,0.1665,-0.24808,0.29412,0.31335,0.10638,0.40967,0.15807,-0.35354,0.076085,-0.45617,-0.2448,0.30787,-0.01253,-0.16332,0.28617,-0.37372,-0.24403,0.2551,0.32441,-0.14826,-0.16362,-0.13066,0.20847,-0.1256,0.43594,0.12837,-0.48019,-0.84443,0.29688,-0.18501,0.0016097,-0.19454,-0.1336,-0.19241,-0.31239,-0.32833,0.21092,-0.07343,0.9221,-0.29591,-0.16823,-0.048165,-0.030541,0.060864,0.21423,0.16535,0.13991,-0.044493,0.30169,0.13121,-0.21874,0.092673,-0.10417,0.057455,-0.16192,-0.39394,0.30884,0.64599,-0.48753,-0.13934,-0.23736,-0.13662,-0.46457,-0.18514,-0.25227,-0.12355,-0.078575,-0.37453,0.053129,-0.15323,-0.04748
-0.10254,0.043382,0.39565,-0.037679,0.2185,-0.20884,0.73349,-0.057623,0.36955,0.015871,-0.00032662,0.47823,-0.097308,0.33189,-0.086103,0.1915,-0.1573,-0.29828,-0.31164,0.052941,-0.2088,-0.28976,0.10212,0.073553,-0.33975,0.043745,0.13128,0.41721,0.18879,-0.13466,0.022089,0.009491,0.057322,0.1369,0.15559,0.088091,-0.20125,0.23842,-0.71495,-0.23994,-0.23616,-0.24851,0.10437,-0.37721,0.21013,0.11411,0.35865,-0.40238,0.30246,-0.36932,-0.12132,0.026095,-0.1892,0.45626,0.085531,0.1957,0.34077,0.25244,0.050657,0.057027,0.018989,-0.14116,-0.19908,-0.090527,-0.30121,-0.021032,-0.17091,0.037932,-0.0078845,-0.30196,-0.26335,0.18827,-0.26765,-0.27051,-0.085193,0.094735,0.2393,0.23585,-0.26084,0.40292,-0.24203,-0.28925,-0.2075,0.017474,-0.055054,-0.66966,-0.3625,0.26018,-0.3247,0.024177,0.10022,-0.21827,0.20484,-0.34285,-0.31778,-0.27134,-0.13668,-0.022732,-0.13525,0.15597
0.013393,-0.00036745,-0.25857,0.22069,-0.055812,0.27951,-0.073919,-0.0089893,0.70651,0.24558,-0.24503,0.20272,0.0061954,0.1126,0.34149,-0.132,0.14056,-0.14587,-0.35778,-0.32244,0.018405,-0.19669,0.40911,-0.37264,-0.17567,-0.10096,0.074328,0.25974,0.47636,-0.18337,-0.097361,0.095309,-0.028522,0.1631,-0.014105,0.069911,-0.1398,-0.21506,0.0069717,0.035287,0.23934,0.18877,-0.18469,0.39254,-0.039601,0.029322,0.15788,0.19452,-0.097414,-0.076802,-0.18036,0.38429,-0.24978,0.2532,-0.17744,-0.5073,-0.31518,0.13496,-0.27502,-0.26093,0.12692,0.3412,0.012293,0.061078,0.25203,-0.1826,0.26302,0.4011,0.24017,-0.23533,0.048831,0.066322,-0.26678,0.17655,-0.13114,0.11256,0.020445,-0.23888,0.1253,0.14236,-0.2923,-0.27993,0.23554,0.21816,0.081931,0.52006,0.43529,-0.54773,-0.044995,-0.20286,-0.23683,-0.27705,-0.29513,-0.010339,0.29118,0.038968,0.15742,-0.15837,0.050099,-0.065431
-0.070712,-0.075381,-0.40076,-0.10186,0.0384,0.18757,-0.21569,0.14686,0.36712,0.37457,-0.16583,-0.41354,0.2432,0.033839,-0.11464,0.13907,0.22762,0.15147,0.23673,-0.13771,0.062719,-0.14553,0.20797,0.13918,-0.059063,-0.13739,0.065821,0.031441,-0.0951,0.18326,-0.072698,0.10888,-0.069187,-0.14315,0.0072457,0.28032,0.42095,-0.14531,0.09073,0.11543,-0.16647,-0.059397,-0.1251,0.71855,-0.09386,0.014501,0.1394,0.8396,-0.23488,-0.0027373,0.33733,0.21221,0.018967,-0.32636,0.066084,-0.29818,-0.6043,-0.06375,0.2122,0.11451,0.13967,0.13773,-0.22878,-0.31441,0.13851,-0.051346,-0.060061,0.35618,0.078993,0.02776,-0.044463,-0.141,0.31022,0.1511,-0.19561,-0.12079,0.096235,-0.17227,0.28066,0.024614,0.045977,0.17186,-0.13444,-0.35035,-0.094845,0.61989,0.011002,-0.35594,0.55633,-0.29436,0.38486,-0.041724,-0.26108,0.08885,0.077315,-0.023113,0.1178,0.19983,0.28569,0.1251
-0.48156,0.11486,-0.26825,-0.19207,-0.23072,-0.25369,-0.060233,-0.28781,-0.5295,-0.25899,-0.066208,-0.0078776,0.27864,0.096613,-0.38672,0.1817,0.06081,-0.058535,0.22629,-0.13747,0.044547,0.072448,0.1141,0.15429,0.069958,0.11627,-0.13029,-0.44801,-0.51507,0.2899,-0.29354,0.061934,0.086909,0.17298,-0.1077,0.015276,0.078373,-0.32624,0.50323,-0.1482,-0.26332,-0.27279,0.23534,-0.10881,0.26593,0.22893,0.051293,-0.17741,-0.011752,-0.30292,-0.11865,-0.086442,0.43837,-0.472,0.17203,0.40281,0.66608,0.21868,0.0013553,0.21646,0.18009,-0.1025,0.037349,0.13349,0.32887,-0.21376,-0.29574,-0.54309,0.13487,0.13647,-0.09556,0.26003,0.25914,0.0032814,0.28563,0.15448,0.1122,0.19298,0.25676,-0.22019,0.38791,0.08128,-0.096098,0.24592,0.38807,0.16685,-0.26832,0.14323,0.18494,-0.18369,0.3649,0.50443,-0.17011,0.32367,0.22038,0.056255,0.048544,0.026691,0.23834,0.11237
-0.30139,-0.15436,0.16417,-0.28125,0.074601,-0.25926,-0.51448,0.022975,-1.0745,-0.10902,-0.052622,0.23922,0.17062,-0.167,-0.45796,-0.15852,0.27785,-0.025026,-0.08488,-0.048903,-0.31952,-0.21737,0.080438,0.37138,0.058812,0.57036,-0.24941,-0.04984,-0.55925,-0.12498,0.20434,-0.25714,-0.011659,0.14807,-0.28341,0.003017,0.34324,-0.11089,0.080104,0.24895,0.1906,0.16271,0.29948,-0.29596,-0.17582,-0.066213,-0.0064478,-0.13796,0.071241,-0.3343,-0.036605,-0.17161,0.51528,-0.040702,0.058706,0.31071,0.1157,0.0095903,0.31742,0.21118,-0.2929,-0.28187,-0.051759,-0.19421,0.29567,-0.38608,-0.23658,-0.56596,0.14816,-0.085276,0.21843,-0.13565,0.26752,-0.11333,0.037114,0.28585,-0.12882,0.054492,0.29104,0.10234,0.11903,0.22548,-0.23691,0.012832,0.32301,-0.046039,0.015044,0.51733,0.64959,-0.21803,0.51514,0.72547,0.33104,0.12673,0.12822,-0.096993,0.014317,-0.11031,0.032215,0.26491
-0.065173,0.066019,0.12502,-0.34782,-0.054902,0.28892,-0.5417,-0.1256,-0.92485,0.18613,0.17061,-0.26449,0.042416,-0.37224,-0.093523,-0.2124,0.29314,-0.11558,0.28425,0.03968,-0.18631,-0.18789,-0.056981,0.31431,-0.080498,0.54182,-0.3095,0.011335,-0.087799,0.21444,0.2897,-0.17591,-0.30165,0.32158,0.091276,-0.33828,-0.17537,-0.03511,0.30537,0.027471,0.20025,-0.064081,0.11352,-0.21211,0.14941,0.036754,-0.3616,0.077679,0.17985,-0.30772,0.41681,-0.22786,0.20517,-0.44488,0.25919,0.40474,0.018133,0.16676,0.12159,-0.21629,0.12588,-0.08107,0.0044249,-0.062723,0.32623,-0.13817,0.089327,-0.5803,-0.049155,-0.27054,0.26997,0.062994,0.29149,-0.25356,0.29179,-0.26081,0.13315,0.19028,0.14382,0.11791,0.13471,0.18037,-0.33215,0.11637,0.20085,0.18047,-0.59082,0.13407,0.34921,0.024271,0.25065,0.45618,0.30881,0.36598,0.19591,-0.18168,0.025427,-0.25896,-0.1564,0.15372
0.45754,-0.30251,0.20262,0.5326,-0.015568,-0.080467,-0.14539,-0.1102,-0.061636,-0.0086986,0.22354,-0.18334,-0.075769,-0.21547,0.061379,0.16356,-0.14515,0.075877,-0.16827,-0.0098141,0.15548,-0.047479,-0.079243,-0.042225,-0.14586,0.059235,0.029055,0.10295,0.039338,-0.094279,-0.12043,0.1323,0.13704,-0.32891,0.13815,-0.14895,-0.0698,-0.064369,-0.34764,0.29224,-0.13332,-0.27478,-0.2378,0.28925,0.24198,-0.27228,0.30582,0.3217,-0.0075276,0.13344,-0.16957,-0.1169,-0.29136,0.18688,-0.14427,-0.41755,-0.053223,-0.16342,-0.028712,0.22986,0.29156,0.093552,-0.35105,-0.21993,-0.27421,0.04092,0.056569,0.28506,-0.2045,0.084462,-0.0061462,-0.28572,0.19282,-0.15157,-0.015052,-0.12983,-0.24954,0.035426,0.19468,-0.17248,-0.15215,0.10965,0.089005,0.15838,0.15483,-0.0020947,0.02872,0.098729,0.04298,-0.015765,-0.18885,-0.28092,0.030014,0.18272,-0.097178,-0.28999,-0.14526,-0.048833,-0.18359,-0.11751
-0.28241,-0.096098,-0.14702,-0.42863,-0.19998,-0.27495,-0.14533,0.1159,-0.77595,-0.16674,0.27161,-0.23819,0.32257,-0.060224,-0.082378,0.037333,0.020585,-0.05183,-0.19082,0.25233,-0.0078055,-0.25343,-0.15288,-0.19817,-0.10939,-0.017247,-0.40003,-0.44553,-0.33549,0.026702,-0.033679,-0.090426,0.062256,0.069925,0.089445,-0.13856,0.24702,0.17102,0.091969,-0.17194,0.12816,0.22443,0.0024637,0.24944,-0.10067,-0.08314,-0.1333,-0.2333,0.027104,-0.32985,0.4244,-0.016327,0.14718,0.018341,0.17416,0.25499,0.46897,0.21133,-0.11808,-0.065035,0.23824,0.10639,0.32794,-0.055284,0.29937,-0.040585,-0.14512,-0.61559,-0.19517,-0.16867,0.0073999,0.19736,0.31757,-0.26389,0.010669,-0.14148,0.080841,0.17024,-0.23577,-0.11706,-0.023636,-0.034623,-0.3677,0.29596,0.00055211,0.21767,-0.25284,0.5207,0.32061,-0.18306,0.3825,0.48033,0.20493,0.30626,-0.074428,-0.219,-0.18383,-0.26799,0.14123,0.24307
0.099191,-0.12019,0.14309,-0.011719,-0.28767,0.013354,-0.38762,0.21969,-0.48747,-0.24972,-0.22821,0.16801,0.33022,0.16205,-0.26804,-0.076989,-0.039981,-0.16977,0.11423,0.16135,0.069897,0.014502,-0.11954,0.2495,-0.21926,0.54035,-0.66681,0.11473,-0.46302,0.24803,0.23673,-0.0025341,0.088252,-0.047112,0.071831,0.090473,-0.097283,0.10409,0.19054,0.19385,-0.084705,-0.10951,0.1434,-0.33259,0.33425,0.12736,-0.31865,-0.533,-0.042822,0.14569,0.11947,-0.32723,0.26078,-0.11368,-0.2439,0.40237,0.37775,-0.2468,-0.13653,-0.081789,-0.098007,-0.24786,0.043256,0.11382,0.068996,0.13535,-0.068481,-0.52951,-0.023408,0.021364,0.30014,-0.10807,-0.0096561,0.016186,-0.26797,-0.23339,0.38847,0.27395,-0.10925,-0.086112,0.21315,-0.11026,-0.24656,0.33852,0.07471,-0.12573,-0.56651,0.37562,0.17548,-0.024545,0.22628,0.1283,-0.15052,-0.27841,0.19838,0.0081866,0.30467,-0.20231,-0.18216,-0.11579
0.076347,-0.2685,-0.10235,0.3404,0.020733,0.20199,0.63559,0.1983,0.21171,0.13488,-0.2016,0.098009,-0.040287,0.16141,0.28305,-0.10677,0.27641,0.17751,-0.3356,-0.068679,0.17691,0.25795,-0.35844,-0.15497,-0.19566,0.25752,0.4088,0.13481,-0.12768,-0.14229,-0.22501,-0.20937,-0.16382,0.12456,-0.20776,0.049767,-0.27858,0.19291,-0.49785,-0.023151,0.17014,0.25642,0.17964,-0.45034,0.39768,0.21615,0.32115,-0.69402,0.19278,-0.22551,-0.42207,-0.17204,-0.28787,0.13271,-0.30658,0.31622,0.44998,-0.22466,0.096175,0.27248,-0.26637,0.1941,0.13487,0.24821,0.17239,0.3675,-0.24494,-0.19392,-0.34349,0.2198,-0.25092,0.3527,-0.16121,-0.24447,-0.19992,-0.0023961,-0.19892,0.086608,0.21402,0.29046,0.021608,0.11384,0.33878,0.37744,0.13479,-0.44737,-0.034907,-0.051478,-0.46657,-0.11589,0.047309,-0.38796,0.24888,0.070432,-0.18916,-0.25785,-0.18371,0.26089,0.019081,0.2534
0.16677,0.3023,-0.18791,-0.11753,0.11588,0.27588,-0.19958,-0.23534,-0.65399,0.033076,-0.22541,-0.24969,0.13124,0.14909,-0.15062,-0.26316,0.28881,-0.13616,-0.054492,0.21659,-0.38166,0.27347,-0.22979,0.16371,-0.1758,0.66236,-0.73216,-0.02063,-0.34588,0.09352,0.26688,0.13485,-0.23078,0.27998,0.013945,0.049216,0.2991,0.23704,0.4451,-0.27294,-0.32454,0.17854,-0.14752,0.0045855,0.057113,0.17824,0.18863,0.084205,-0.18938,-0.22252,0.060746,-0.3854,0.22761,-0.03038,0.0475,0.70378,0.68091,-0.18312,-0.1335,-0.22543,-0.19215,-0.22851,-0.17804,0.14432,0.21697,0.12315,0.16954,-0.75653,0.14556,0.002402,-0.036155,-0.17252,0.22636,0.21155,0.22009,-0.24476,0.38364,0.13902,0.14819,-0.12444,0.087012,0.15657,0.048841,0.34077,-0.015268,-0.28545,-0.65596,0.70111,0.34346,-0.021133,-0.14892,0.12472,0.20351,-0.080736,-0.17554,-0.047653,0.33871,0.17505,-0.12457,0.30509
0.32206,-0.37564,-0.15718,0.44978,0.33424,-0.28464,0.076962,0.31058,1.2553,-0.19634,-0.035441,-0.17074,-0.17265,-0.13672,0.68782,-0.24548,0.10152,0.3326,-0.25098,-0.41469,0.025934,0.21511,0.3615,-0.08044,0.3914,-0.47412,0.66251,0.14825,0.43199,-0.085947,0.0099279,0.12463,-0.17629,-0.44749,0.28833,0.093452,0.089217,0.30946,-0.33962,-0.22925,0.23555,-0.23046,0.0067804,0.33633,-0.0216,0.14588,0.15272,0.46135,-0.38663,-0.18346,-0.21427,0.39957,-0.20997,0.12821,0.1856,-0.62966,-0.84178,-0.02351,-0.14988,0.1199,-0.04302,0.33253,0.070754,0.055009,0.16518,0.20742,0.1777,0.89928,0.14367,0.19664,-0.34887,-0.23538,0.17195,0.23912,-0.23983,0.21329,0.076715,-0.15528,-0.096074,0.094563,-0.24179,0.15875,-0.12966,-0.14633,-0.304,0.46665,0.65412,-0.447,-0.23242,0.13173,-0.13825,-0.57074,-0.42089,-0.26062,0.21453,0.26622,0.049047,-0.20284,-0.021371,-0.038604
 
0.65751,-0.75327,-0.20442,0.45946,0.61176,0.83445,0.27822,0.54469,-0.36155,0.33017,0.042905,-0.44261,-0.5827,-0.87362,0.74143,-0.015304,-0.45794,0.42617,0.20511,-0.23415,-0.24495,0.2001,-0.73893,0.18184,0.071622,0.46102,0.54562,-0.88488,0.28427,-0.40005,0.79828,-0.75236,-0.80203,0.14712,0.72592,-0.53632,0.60945,0.28999,-0.36516,-0.40651,0.092651,-0.14077,-0.20689,-0.22729,0.27987,-0.83831,0.94708,0.65998,-0.31212,0.71256,-0.16526,1.1659,-0.19673,-0.6842,-0.8726,0.7673,-0.088743,-0.84043,0.93059,0.56167,0.9332,0.87231,0.73852,0.3737,-0.46872,-0.43976,0.057633,-0.27413,0.65178,-0.88864,-0.08364,0.72484,-0.81368,-0.89786,-0.038068,0.94759,0.55688,0.36147,0.29481,-0.60946,0.12429,0.25747,-0.23575,-0.43481,0.4567,-0.84114,0.20147,-0.41314,0.58528,-0.73664,-0.17333,-0.17989,0.7759,-0.36741,-0.71202,0.14318,0.93363,0.89071,0.86207,0.83979
-0.15939,0.22017,0.26904,0.32648,0.095692,0.09087,0.64391,0.083211,-0.0029712,1.0474,0.19381,-0.29073,0.3054,0.22108,0.10933,0.061669,0.14161,0.42598,-0.31937,-0.22796,-0.103,-0.081917,-0.00012931,0.5938,-0.15986,0.23555,0.18534,-0.27913,-0.22875,-0.050222,-0.16336,0.1725,-0.26284,-0.2149,-0.042597,-0.079149,-0.012828,0.036602,0.43165,0.10508,0.014293,0.27282,0.060284,0.19799,0.068706,-0.31837,0.10956,-0.0014109,-0.11995,0.23485,-0.26614,-0.48539,-0.014389,-0.089822,0.31673,-0.018732,0.037507,0.15897,-0.13442,0.15246,0.021455,-0.023644,-0.20667,-0.21476,-0.11408,-0.049176,0.28869,0.14116,0.14573,-0.10506,0.21045,0.18386,-0.32971,0.40148,0.051234,0.36774,0.19088,-0.22357,0.030816,0.07636,0.097364,0.071043,0.038573,0.11496,0.058729,0.28626,-0.24169,0.16316,-0.29365,0.12112,0.24173,0.041113,-0.018309,-0.29109,0.075043,0.0934,-0.3082,0.098819,0.026958,-0.064723
